<?xml version="1.0"?>
<!-- DTD for the XMLBIF 0.3 format -->
<!DOCTYPE BIF [
	<!ELEMENT BIF ( NETWORK )*>
	      <!ATTLIST BIF VERSION CDATA #REQUIRED>
	<!ELEMENT NETWORK ( NAME, ( PROPERTY | VARIABLE | DEFINITION )* )>
	<!ELEMENT NAME (#PCDATA)>
	<!ELEMENT VARIABLE ( NAME, ( OUTCOME |  PROPERTY )* ) >
	      <!ATTLIST VARIABLE TYPE (nature|decision|utility) "nature">
	<!ELEMENT OUTCOME (#PCDATA)>
	<!ELEMENT DEFINITION ( FOR | GIVEN | TABLE | PROPERTY )* >
	<!ELEMENT FOR (#PCDATA)>
	<!ELEMENT GIVEN (#PCDATA)>
	<!ELEMENT TABLE (#PCDATA)>
	<!ELEMENT PROPERTY (#PCDATA)>
]>


<BIF VERSION="0.3">
<NETWORK>
<NAME>observations</NAME>
<VARIABLE TYPE="nature">
	<NAME>X3FB7E6DC482301DAADD00014220897B8</NAME>
	<OUTCOME>true</OUTCOME>
	<OUTCOME>false</OUTCOME>
	<PROPERTY>position = (0,0)</PROPERTY>
</VARIABLE>
<VARIABLE TYPE="nature">
	<NAME>X3F9E1B1C482301DA849B0014220897B8</NAME>
	<OUTCOME>true</OUTCOME>
	<OUTCOME>false</OUTCOME>
	<PROPERTY>position = (0,0)</PROPERTY>
</VARIABLE>
<VARIABLE TYPE="nature">
	<NAME>X3FF5EF5A482301DAAC020014220897B8</NAME>
	<OUTCOME>true</OUTCOME>
	<OUTCOME>false</OUTCOME>
	<PROPERTY>position = (0,0)</PROPERTY>
</VARIABLE>
<VARIABLE TYPE="nature">
	<NAME>X3F7A9E98482301DAB7650014220897B8</NAME>
	<OUTCOME>true</OUTCOME>
	<OUTCOME>false</OUTCOME>
	<PROPERTY>position = (0,0)</PROPERTY>
</VARIABLE>
<VARIABLE TYPE="nature">
	<NAME>X3E143547482301DA86F60014220897B8</NAME>
	<OUTCOME>true</OUTCOME>
	<OUTCOME>false</OUTCOME>
	<PROPERTY>position = (0,0)</PROPERTY>
</VARIABLE>
<VARIABLE TYPE="nature">
	<NAME>X024CC38D8A35BE40967998EC3D62DC6C</NAME>
	<OUTCOME>true</OUTCOME>
	<OUTCOME>false</OUTCOME>
	<PROPERTY>position = (0,0)</PROPERTY>
</VARIABLE>
<VARIABLE TYPE="nature">
	<NAME>X044DA5BA2A9EDD44A6A87E8E21B75AAB</NAME>
	<OUTCOME>true</OUTCOME>
	<OUTCOME>false</OUTCOME>
	<PROPERTY>position = (0,0)</PROPERTY>
</VARIABLE>
<VARIABLE TYPE="nature">
	<NAME>X3859A45F482301DA8A7C0014220897B8</NAME>
	<OUTCOME>true</OUTCOME>
	<OUTCOME>false</OUTCOME>
	<PROPERTY>position = (0,0)</PROPERTY>
</VARIABLE>
<VARIABLE TYPE="nature">
	<NAME>X3CDA0A7910F0154B8642D4E79609B2FB</NAME>
	<OUTCOME>true</OUTCOME>
	<OUTCOME>false</OUTCOME>
	<PROPERTY>position = (0,0)</PROPERTY>
</VARIABLE>
<VARIABLE TYPE="nature">
	<NAME>X3F25EDDA482301DA9FA90014220897B8</NAME>
	<OUTCOME>true</OUTCOME>
	<OUTCOME>false</OUTCOME>
	<PROPERTY>position = (0,0)</PROPERTY>
</VARIABLE>
<VARIABLE TYPE="nature">
	<NAME>X3F263342482301DAB7BE0014220897B8</NAME>
	<OUTCOME>true</OUTCOME>
	<OUTCOME>false</OUTCOME>
	<PROPERTY>position = (0,0)</PROPERTY>
</VARIABLE>
<VARIABLE TYPE="nature">
	<NAME>X3F2675A7482301DAA0760014220897B8</NAME>
	<OUTCOME>true</OUTCOME>
	<OUTCOME>false</OUTCOME>
	<PROPERTY>position = (0,0)</PROPERTY>
</VARIABLE>
<VARIABLE TYPE="nature">
	<NAME>X3F2692BE482301DA83C20014220897B8</NAME>
	<OUTCOME>true</OUTCOME>
	<OUTCOME>false</OUTCOME>
	<PROPERTY>position = (0,0)</PROPERTY>
</VARIABLE>
<VARIABLE TYPE="nature">
	<NAME>X3F26AB89482301DAAF560014220897B8</NAME>
	<OUTCOME>true</OUTCOME>
	<OUTCOME>false</OUTCOME>
	<PROPERTY>position = (0,0)</PROPERTY>
</VARIABLE>
<VARIABLE TYPE="nature">
	<NAME>X3F7027DD482301DA99C60014220897B8</NAME>
	<OUTCOME>true</OUTCOME>
	<OUTCOME>false</OUTCOME>
	<PROPERTY>position = (0,0)</PROPERTY>
</VARIABLE>
<VARIABLE TYPE="nature">
	<NAME>X3F71DDA5482301DA93750014220897B8</NAME>
	<OUTCOME>true</OUTCOME>
	<OUTCOME>false</OUTCOME>
	<PROPERTY>position = (0,0)</PROPERTY>
</VARIABLE>
<VARIABLE TYPE="nature">
	<NAME>X3F8A6227482301DAB0E80014220897B8</NAME>
	<OUTCOME>true</OUTCOME>
	<OUTCOME>false</OUTCOME>
	<PROPERTY>position = (0,0)</PROPERTY>
</VARIABLE>
<VARIABLE TYPE="nature">
	<NAME>X3F8A7AFC482301DA820F0014220897B8</NAME>
	<OUTCOME>true</OUTCOME>
	<OUTCOME>false</OUTCOME>
	<PROPERTY>position = (0,0)</PROPERTY>
</VARIABLE>
<VARIABLE TYPE="nature">
	<NAME>X8B6F912BC431D147A4C1762C571ADC92</NAME>
	<OUTCOME>true</OUTCOME>
	<OUTCOME>false</OUTCOME>
	<PROPERTY>position = (0,0)</PROPERTY>
</VARIABLE>
<VARIABLE TYPE="nature">
	<NAME>XE436E7D798B26145A2C57A15A999F9F4</NAME>
	<OUTCOME>true</OUTCOME>
	<OUTCOME>false</OUTCOME>
	<PROPERTY>position = (0,0)</PROPERTY>
</VARIABLE>
<VARIABLE TYPE="nature">
	<NAME>X2AB6C8F4AD8D01DA9A590014220897B8</NAME>
	<OUTCOME>true</OUTCOME>
	<OUTCOME>false</OUTCOME>
	<PROPERTY>position = (0,0)</PROPERTY>
</VARIABLE>
<VARIABLE TYPE="nature">
	<NAME>X2ACDEF28AD8D01DAAB040014220897B8</NAME>
	<OUTCOME>true</OUTCOME>
	<OUTCOME>false</OUTCOME>
	<PROPERTY>position = (0,0)</PROPERTY>
</VARIABLE>
<VARIABLE TYPE="nature">
	<NAME>X3E13E28A482301DA94F90014220897B8</NAME>
	<OUTCOME>true</OUTCOME>
	<OUTCOME>false</OUTCOME>
	<PROPERTY>position = (0,0)</PROPERTY>
</VARIABLE>
<VARIABLE TYPE="nature">
	<NAME>X3E13FE61482301DA82BC0014220897B8</NAME>
	<OUTCOME>true</OUTCOME>
	<OUTCOME>false</OUTCOME>
	<PROPERTY>position = (0,0)</PROPERTY>
</VARIABLE>
<VARIABLE TYPE="nature">
	<NAME>X3E1451C9482301DA86E70014220897B8</NAME>
	<OUTCOME>true</OUTCOME>
	<OUTCOME>false</OUTCOME>
	<PROPERTY>position = (0,0)</PROPERTY>
</VARIABLE>
<VARIABLE TYPE="nature">
	<NAME>X3E146E90482301DABBB10014220897B8</NAME>
	<OUTCOME>true</OUTCOME>
	<OUTCOME>false</OUTCOME>
	<PROPERTY>position = (0,0)</PROPERTY>
</VARIABLE>
<VARIABLE TYPE="nature">
	<NAME>X3E14CD08482301DAB6EC0014220897B8</NAME>
	<OUTCOME>true</OUTCOME>
	<OUTCOME>false</OUTCOME>
	<PROPERTY>position = (0,0)</PROPERTY>
</VARIABLE>
<VARIABLE TYPE="nature">
	<NAME>X3E14EACA482301DAAE540014220897B8</NAME>
	<OUTCOME>true</OUTCOME>
	<OUTCOME>false</OUTCOME>
	<PROPERTY>position = (0,0)</PROPERTY>
</VARIABLE>
<VARIABLE TYPE="nature">
	<NAME>X3EFB035B482301DAB45E0014220897B8</NAME>
	<OUTCOME>true</OUTCOME>
	<OUTCOME>false</OUTCOME>
	<PROPERTY>position = (0,0)</PROPERTY>
</VARIABLE>
<VARIABLE TYPE="nature">
	<NAME>X3EFB868B482301DAB9520014220897B8</NAME>
	<OUTCOME>true</OUTCOME>
	<OUTCOME>false</OUTCOME>
	<PROPERTY>position = (0,0)</PROPERTY>
</VARIABLE>
<VARIABLE TYPE="nature">
	<NAME>X3F092E12482301DA988C0014220897B8</NAME>
	<OUTCOME>true</OUTCOME>
	<OUTCOME>false</OUTCOME>
	<PROPERTY>position = (0,0)</PROPERTY>
</VARIABLE>
<VARIABLE TYPE="nature">
	<NAME>X3F09D396482301DA90140014220897B8</NAME>
	<OUTCOME>true</OUTCOME>
	<OUTCOME>false</OUTCOME>
	<PROPERTY>position = (0,0)</PROPERTY>
</VARIABLE>
<VARIABLE TYPE="nature">
	<NAME>X3F2C553A482301DA988D0014220897B8</NAME>
	<OUTCOME>true</OUTCOME>
	<OUTCOME>false</OUTCOME>
	<PROPERTY>position = (0,0)</PROPERTY>
</VARIABLE>
<VARIABLE TYPE="nature">
	<NAME>X3F35D5F8482301DAB6670014220897B8</NAME>
	<OUTCOME>true</OUTCOME>
	<OUTCOME>false</OUTCOME>
	<PROPERTY>position = (0,0)</PROPERTY>
</VARIABLE>
<VARIABLE TYPE="nature">
	<NAME>X4024B868482301DA95CC0014220897B8</NAME>
	<OUTCOME>true</OUTCOME>
	<OUTCOME>false</OUTCOME>
	<PROPERTY>position = (0,0)</PROPERTY>
</VARIABLE>
<VARIABLE TYPE="nature">
	<NAME>X62402D69717101DAA7FD0014220897B8</NAME>
	<OUTCOME>true</OUTCOME>
	<OUTCOME>false</OUTCOME>
	<PROPERTY>position = (0,0)</PROPERTY>
</VARIABLE>
<VARIABLE TYPE="nature">
	<NAME>X66AD7558CF4F01DA945B0014220897B8</NAME>
	<OUTCOME>true</OUTCOME>
	<OUTCOME>false</OUTCOME>
	<PROPERTY>position = (0,0)</PROPERTY>
</VARIABLE>
<VARIABLE TYPE="nature">
	<NAME>XC3CC6CBD07E201DBA32F0014220897B8</NAME>
	<OUTCOME>true</OUTCOME>
	<OUTCOME>false</OUTCOME>
	<PROPERTY>position = (0,0)</PROPERTY>
</VARIABLE>
<VARIABLE TYPE="nature">
	<NAME>XC9B67667114D01DBA4D90014220897B8</NAME>
	<OUTCOME>true</OUTCOME>
	<OUTCOME>false</OUTCOME>
	<PROPERTY>position = (0,0)</PROPERTY>
</VARIABLE>
<VARIABLE TYPE="nature">
	<NAME>XCA1EBEB6114D01DB87290014220897B8</NAME>
	<OUTCOME>true</OUTCOME>
	<OUTCOME>false</OUTCOME>
	<PROPERTY>position = (0,0)</PROPERTY>
</VARIABLE>
<VARIABLE TYPE="nature">
	<NAME>XCA4E7685114D01DB8FEC0014220897B8</NAME>
	<OUTCOME>true</OUTCOME>
	<OUTCOME>false</OUTCOME>
	<PROPERTY>position = (0,0)</PROPERTY>
</VARIABLE>
<VARIABLE TYPE="nature">
	<NAME>XE442B5C8B63101DA9C210014220897B8</NAME>
	<OUTCOME>true</OUTCOME>
	<OUTCOME>false</OUTCOME>
	<PROPERTY>position = (0,0)</PROPERTY>
</VARIABLE>
<VARIABLE TYPE="nature">
	<NAME>X3F0946D2482301DA974D0014220897B8</NAME>
	<OUTCOME>true</OUTCOME>
	<OUTCOME>false</OUTCOME>
	<PROPERTY>position = (0,0)</PROPERTY>
</VARIABLE>
<VARIABLE TYPE="nature">
	<NAME>X3F0989B9482301DAB76D0014220897B8</NAME>
	<OUTCOME>true</OUTCOME>
	<OUTCOME>false</OUTCOME>
	<PROPERTY>position = (0,0)</PROPERTY>
</VARIABLE>
<VARIABLE TYPE="nature">
	<NAME>X3F09A19D482301DAB8EF0014220897B8</NAME>
	<OUTCOME>true</OUTCOME>
	<OUTCOME>false</OUTCOME>
	<PROPERTY>position = (0,0)</PROPERTY>
</VARIABLE>
<VARIABLE TYPE="nature">
	<NAME>X3F09BC16482301DA88690014220897B8</NAME>
	<OUTCOME>true</OUTCOME>
	<OUTCOME>false</OUTCOME>
	<PROPERTY>position = (0,0)</PROPERTY>
</VARIABLE>
<VARIABLE TYPE="nature">
	<NAME>X3E1488D7482301DA8CE50014220897B8</NAME>
	<OUTCOME>true</OUTCOME>
	<OUTCOME>false</OUTCOME>
	<PROPERTY>position = (0,0)</PROPERTY>
</VARIABLE>
<VARIABLE TYPE="nature">
	<NAME>X3EFBA06E482301DABF0A0014220897B8</NAME>
	<OUTCOME>true</OUTCOME>
	<OUTCOME>false</OUTCOME>
	<PROPERTY>position = (0,0)</PROPERTY>
</VARIABLE>
<VARIABLE TYPE="nature">
	<NAME>X3EFBBBCD482301DAB4290014220897B8</NAME>
	<OUTCOME>true</OUTCOME>
	<OUTCOME>false</OUTCOME>
	<PROPERTY>position = (0,0)</PROPERTY>
</VARIABLE>
<VARIABLE TYPE="nature">
	<NAME>X3EFC0134482301DA9A810014220897B8</NAME>
	<OUTCOME>true</OUTCOME>
	<OUTCOME>false</OUTCOME>
	<PROPERTY>position = (0,0)</PROPERTY>
</VARIABLE>
<VARIABLE TYPE="nature">
	<NAME>X3F6CF7A8482301DAB86A0014220897B8</NAME>
	<OUTCOME>true</OUTCOME>
	<OUTCOME>false</OUTCOME>
	<PROPERTY>position = (0,0)</PROPERTY>
</VARIABLE>
<VARIABLE TYPE="nature">
	<NAME>X3FF54131482301DAA18D0014220897B8</NAME>
	<OUTCOME>true</OUTCOME>
	<OUTCOME>false</OUTCOME>
	<PROPERTY>position = (0,0)</PROPERTY>
</VARIABLE>
<VARIABLE TYPE="nature">
	<NAME>XAFEE7F9609B04949BE5A3F8C0E0F4C8C</NAME>
	<OUTCOME>true</OUTCOME>
	<OUTCOME>false</OUTCOME>
	<PROPERTY>position = (0,0)</PROPERTY>
</VARIABLE>
<VARIABLE TYPE="nature">
	<NAME>X3F86C6ED482301DA97060014220897B8</NAME>
	<OUTCOME>true</OUTCOME>
	<OUTCOME>false</OUTCOME>
	<PROPERTY>position = (0,0)</PROPERTY>
</VARIABLE>
<VARIABLE TYPE="nature">
	<NAME>X3832462B482301DAB5800014220897B8</NAME>
	<OUTCOME>true</OUTCOME>
	<OUTCOME>false</OUTCOME>
	<PROPERTY>position = (0,0)</PROPERTY>
</VARIABLE>
<VARIABLE TYPE="nature">
	<NAME>X77A67498A36801DAA4650014220897B8</NAME>
	<OUTCOME>true</OUTCOME>
	<OUTCOME>false</OUTCOME>
	<PROPERTY>position = (0,0)</PROPERTY>
</VARIABLE>
<VARIABLE TYPE="nature">
	<NAME>X385A53B3482301DAA6800014220897B8</NAME>
	<OUTCOME>true</OUTCOME>
	<OUTCOME>false</OUTCOME>
	<PROPERTY>position = (0,0)</PROPERTY>
</VARIABLE>
<VARIABLE TYPE="nature">
	<NAME>X3F838959482301DABF5D0014220897B8</NAME>
	<OUTCOME>true</OUTCOME>
	<OUTCOME>false</OUTCOME>
	<PROPERTY>position = (0,0)</PROPERTY>
</VARIABLE>
<VARIABLE TYPE="nature">
	<NAME>X768A5783A36801DA9E2C0014220897B8</NAME>
	<OUTCOME>true</OUTCOME>
	<OUTCOME>false</OUTCOME>
	<PROPERTY>position = (0,0)</PROPERTY>
</VARIABLE>
<VARIABLE TYPE="nature">
	<NAME>X0B69F41021D1DA4F9F265746DB9AB25D</NAME>
	<OUTCOME>true</OUTCOME>
	<OUTCOME>false</OUTCOME>
	<PROPERTY>position = (0,0)</PROPERTY>
</VARIABLE>
<VARIABLE TYPE="nature">
	<NAME>X30C8251C5B878346B7466D3822D5C857</NAME>
	<OUTCOME>true</OUTCOME>
	<OUTCOME>false</OUTCOME>
	<PROPERTY>position = (0,0)</PROPERTY>
</VARIABLE>
<VARIABLE TYPE="nature">
	<NAME>X3849AA76482301DAA9190014220897B8</NAME>
	<OUTCOME>true</OUTCOME>
	<OUTCOME>false</OUTCOME>
	<PROPERTY>position = (0,0)</PROPERTY>
</VARIABLE>
<VARIABLE TYPE="nature">
	<NAME>X388E9BAC482301DABEE80014220897B8</NAME>
	<OUTCOME>true</OUTCOME>
	<OUTCOME>false</OUTCOME>
	<PROPERTY>position = (0,0)</PROPERTY>
</VARIABLE>
<VARIABLE TYPE="nature">
	<NAME>X636FB0D78E2501DA9ADF0014220897B8</NAME>
	<OUTCOME>true</OUTCOME>
	<OUTCOME>false</OUTCOME>
	<PROPERTY>position = (0,0)</PROPERTY>
</VARIABLE>
<VARIABLE TYPE="nature">
	<NAME>X63802F088E2501DABA130014220897B8</NAME>
	<OUTCOME>true</OUTCOME>
	<OUTCOME>false</OUTCOME>
	<PROPERTY>position = (0,0)</PROPERTY>
</VARIABLE>
<VARIABLE TYPE="nature">
	<NAME>X7B0DC94007EB474CA78635D4C2A36F44</NAME>
	<OUTCOME>true</OUTCOME>
	<OUTCOME>false</OUTCOME>
	<PROPERTY>position = (0,0)</PROPERTY>
</VARIABLE>
<VARIABLE TYPE="nature">
	<NAME>X9D3B73F754A347448EE82A1DCC24763E</NAME>
	<OUTCOME>true</OUTCOME>
	<OUTCOME>false</OUTCOME>
	<PROPERTY>position = (0,0)</PROPERTY>
</VARIABLE>
<VARIABLE TYPE="nature">
	<NAME>XAD2AADD09D0B8941A68D1F24878168CF</NAME>
	<OUTCOME>true</OUTCOME>
	<OUTCOME>false</OUTCOME>
	<PROPERTY>position = (0,0)</PROPERTY>
</VARIABLE>
<VARIABLE TYPE="nature">
	<NAME>XAEC01A791B5CCD48A79635DDB88DF665</NAME>
	<OUTCOME>true</OUTCOME>
	<OUTCOME>false</OUTCOME>
	<PROPERTY>position = (0,0)</PROPERTY>
</VARIABLE>
<VARIABLE TYPE="nature">
	<NAME>XC6A6ADDA6A698147BFCA5D7376117D61</NAME>
	<OUTCOME>true</OUTCOME>
	<OUTCOME>false</OUTCOME>
	<PROPERTY>position = (0,0)</PROPERTY>
</VARIABLE>
<VARIABLE TYPE="nature">
	<NAME>XCA6F6B9C48891441B02F0667D29081D3</NAME>
	<OUTCOME>true</OUTCOME>
	<OUTCOME>false</OUTCOME>
	<PROPERTY>position = (0,0)</PROPERTY>
</VARIABLE>
<VARIABLE TYPE="nature">
	<NAME>XD6176C529857D9468DA99E1E8FE4B226</NAME>
	<OUTCOME>true</OUTCOME>
	<OUTCOME>false</OUTCOME>
	<PROPERTY>position = (0,0)</PROPERTY>
</VARIABLE>
<VARIABLE TYPE="nature">
	<NAME>XDBEAEF3F83FC4140B27431C9133D801C</NAME>
	<OUTCOME>true</OUTCOME>
	<OUTCOME>false</OUTCOME>
	<PROPERTY>position = (0,0)</PROPERTY>
</VARIABLE>
<VARIABLE TYPE="nature">
	<NAME>XEB6E4EAF89C97F4CB7CCD9D6207BCD20</NAME>
	<OUTCOME>true</OUTCOME>
	<OUTCOME>false</OUTCOME>
	<PROPERTY>position = (0,0)</PROPERTY>
</VARIABLE>
<VARIABLE TYPE="nature">
	<NAME>X1205CF3BF6BD0546AE6935131EF7BAFC</NAME>
	<OUTCOME>true</OUTCOME>
	<OUTCOME>false</OUTCOME>
	<PROPERTY>position = (0,0)</PROPERTY>
</VARIABLE>
<VARIABLE TYPE="nature">
	<NAME>X25416429BF9E01DAAF5F0014220897B8</NAME>
	<OUTCOME>true</OUTCOME>
	<OUTCOME>false</OUTCOME>
	<PROPERTY>position = (0,0)</PROPERTY>
</VARIABLE>
<VARIABLE TYPE="nature">
	<NAME>X3F958B3B482301DAA04F0014220897B8</NAME>
	<OUTCOME>true</OUTCOME>
	<OUTCOME>false</OUTCOME>
	<PROPERTY>position = (0,0)</PROPERTY>
</VARIABLE>
<VARIABLE TYPE="nature">
	<NAME>X3F975179482301DA86330014220897B8</NAME>
	<OUTCOME>true</OUTCOME>
	<OUTCOME>false</OUTCOME>
	<PROPERTY>position = (0,0)</PROPERTY>
</VARIABLE>
<VARIABLE TYPE="nature">
	<NAME>X3F984CF9482301DAB6AE0014220897B8</NAME>
	<OUTCOME>true</OUTCOME>
	<OUTCOME>false</OUTCOME>
	<PROPERTY>position = (0,0)</PROPERTY>
</VARIABLE>
<VARIABLE TYPE="nature">
	<NAME>X3F98BC92482301DA9BAD0014220897B8</NAME>
	<OUTCOME>true</OUTCOME>
	<OUTCOME>false</OUTCOME>
	<PROPERTY>position = (0,0)</PROPERTY>
</VARIABLE>
<VARIABLE TYPE="nature">
	<NAME>X4009457F482301DA899D0014220897B8</NAME>
	<OUTCOME>true</OUTCOME>
	<OUTCOME>false</OUTCOME>
	<PROPERTY>position = (0,0)</PROPERTY>
</VARIABLE>
<VARIABLE TYPE="nature">
	<NAME>X402B3607482301DAAEE40014220897B8</NAME>
	<OUTCOME>true</OUTCOME>
	<OUTCOME>false</OUTCOME>
	<PROPERTY>position = (0,0)</PROPERTY>
</VARIABLE>
<VARIABLE TYPE="nature">
	<NAME>X402B5094482301DABDA60014220897B8</NAME>
	<OUTCOME>true</OUTCOME>
	<OUTCOME>false</OUTCOME>
	<PROPERTY>position = (0,0)</PROPERTY>
</VARIABLE>
<VARIABLE TYPE="nature">
	<NAME>X402B6832482301DA8DC20014220897B8</NAME>
	<OUTCOME>true</OUTCOME>
	<OUTCOME>false</OUTCOME>
	<PROPERTY>position = (0,0)</PROPERTY>
</VARIABLE>
<VARIABLE TYPE="nature">
	<NAME>X402BC3A8482301DAB8D60014220897B8</NAME>
	<OUTCOME>true</OUTCOME>
	<OUTCOME>false</OUTCOME>
	<PROPERTY>position = (0,0)</PROPERTY>
</VARIABLE>
<VARIABLE TYPE="nature">
	<NAME>X679659C53E1801DB8BD10014220897B8</NAME>
	<OUTCOME>true</OUTCOME>
	<OUTCOME>false</OUTCOME>
	<PROPERTY>position = (0,0)</PROPERTY>
</VARIABLE>
<VARIABLE TYPE="nature">
	<NAME>XD775F3417CD601DAB1640014220897B8</NAME>
	<OUTCOME>true</OUTCOME>
	<OUTCOME>false</OUTCOME>
	<PROPERTY>position = (0,0)</PROPERTY>
</VARIABLE>
<VARIABLE TYPE="nature">
	<NAME>XE288C631E5463F469A96C1547E9C6DF1</NAME>
	<OUTCOME>true</OUTCOME>
	<OUTCOME>false</OUTCOME>
	<PROPERTY>position = (0,0)</PROPERTY>
</VARIABLE>
<VARIABLE TYPE="nature">
	<NAME>XF56BF85C8AFC01DA80BA0014220897B8</NAME>
	<OUTCOME>true</OUTCOME>
	<OUTCOME>false</OUTCOME>
	<PROPERTY>position = (0,0)</PROPERTY>
</VARIABLE>
<VARIABLE TYPE="nature">
	<NAME>XE530443E9DE801DA98000014220897B8</NAME>
	<OUTCOME>true</OUTCOME>
	<OUTCOME>false</OUTCOME>
	<PROPERTY>position = (0,0)</PROPERTY>
</VARIABLE>
<VARIABLE TYPE="nature">
	<NAME>X48BE4C2E33E101DB82330014220897B8</NAME>
	<OUTCOME>true</OUTCOME>
	<OUTCOME>false</OUTCOME>
	<PROPERTY>position = (0,0)</PROPERTY>
</VARIABLE>
<VARIABLE TYPE="nature">
	<NAME>X3F95FF67482301DAA56E0014220897B8</NAME>
	<OUTCOME>true</OUTCOME>
	<OUTCOME>false</OUTCOME>
	<PROPERTY>position = (0,0)</PROPERTY>
</VARIABLE>
<VARIABLE TYPE="nature">
	<NAME>X05D90C391C81BA4BAB548EA631C6D951</NAME>
	<OUTCOME>true</OUTCOME>
	<OUTCOME>false</OUTCOME>
	<PROPERTY>position = (0,0)</PROPERTY>
</VARIABLE>
<VARIABLE TYPE="nature">
	<NAME>X3FF1C3A5482301DAB6A00014220897B8</NAME>
	<OUTCOME>true</OUTCOME>
	<OUTCOME>false</OUTCOME>
	<PROPERTY>position = (0,0)</PROPERTY>
</VARIABLE>
<VARIABLE TYPE="nature">
	<NAME>X387A17E5482301DAAF360014220897B8</NAME>
	<OUTCOME>true</OUTCOME>
	<OUTCOME>false</OUTCOME>
	<PROPERTY>position = (0,0)</PROPERTY>
</VARIABLE>
<VARIABLE TYPE="nature">
	<NAME>X37C8371F674001DAB6760014220897B8</NAME>
	<OUTCOME>true</OUTCOME>
	<OUTCOME>false</OUTCOME>
	<PROPERTY>position = (0,0)</PROPERTY>
</VARIABLE>
<VARIABLE TYPE="nature">
	<NAME>X3F6CD95A482301DA84D20014220897B8</NAME>
	<OUTCOME>true</OUTCOME>
	<OUTCOME>false</OUTCOME>
	<PROPERTY>position = (0,0)</PROPERTY>
</VARIABLE>
<VARIABLE TYPE="nature">
	<NAME>X3F6D12A2482301DA993B0014220897B8</NAME>
	<OUTCOME>true</OUTCOME>
	<OUTCOME>false</OUTCOME>
	<PROPERTY>position = (0,0)</PROPERTY>
</VARIABLE>
<VARIABLE TYPE="nature">
	<NAME>X3FEC6633482301DAB11E0014220897B8</NAME>
	<OUTCOME>true</OUTCOME>
	<OUTCOME>false</OUTCOME>
	<PROPERTY>position = (0,0)</PROPERTY>
</VARIABLE>
<VARIABLE TYPE="nature">
	<NAME>X3FF43BC2482301DAAFF10014220897B8</NAME>
	<OUTCOME>true</OUTCOME>
	<OUTCOME>false</OUTCOME>
	<PROPERTY>position = (0,0)</PROPERTY>
</VARIABLE>
<VARIABLE TYPE="nature">
	<NAME>X3F7A5457482301DA801A0014220897B8</NAME>
	<OUTCOME>true</OUTCOME>
	<OUTCOME>false</OUTCOME>
	<PROPERTY>position = (0,0)</PROPERTY>
</VARIABLE>
<VARIABLE TYPE="nature">
	<NAME>X3FB8368D482301DA96D10014220897B8</NAME>
	<OUTCOME>true</OUTCOME>
	<OUTCOME>false</OUTCOME>
	<PROPERTY>position = (0,0)</PROPERTY>
</VARIABLE>
<VARIABLE TYPE="nature">
	<NAME>X3886D80F482301DAAB6F0014220897B8</NAME>
	<OUTCOME>true</OUTCOME>
	<OUTCOME>false</OUTCOME>
	<PROPERTY>position = (0,0)</PROPERTY>
</VARIABLE>
<VARIABLE TYPE="nature">
	<NAME>X3886F332482301DAB56A0014220897B8</NAME>
	<OUTCOME>true</OUTCOME>
	<OUTCOME>false</OUTCOME>
	<PROPERTY>position = (0,0)</PROPERTY>
</VARIABLE>
<VARIABLE TYPE="nature">
	<NAME>X388751AA482301DAB41F0014220897B8</NAME>
	<OUTCOME>true</OUTCOME>
	<OUTCOME>false</OUTCOME>
	<PROPERTY>position = (0,0)</PROPERTY>
</VARIABLE>
<VARIABLE TYPE="nature">
	<NAME>X38876F58482301DAA5B60014220897B8</NAME>
	<OUTCOME>true</OUTCOME>
	<OUTCOME>false</OUTCOME>
	<PROPERTY>position = (0,0)</PROPERTY>
</VARIABLE>
<VARIABLE TYPE="nature">
	<NAME>X3887A72E482301DA98E10014220897B8</NAME>
	<OUTCOME>true</OUTCOME>
	<OUTCOME>false</OUTCOME>
	<PROPERTY>position = (0,0)</PROPERTY>
</VARIABLE>
<VARIABLE TYPE="nature">
	<NAME>X3F223312482301DAA67F0014220897B8</NAME>
	<OUTCOME>true</OUTCOME>
	<OUTCOME>false</OUTCOME>
	<PROPERTY>position = (0,0)</PROPERTY>
</VARIABLE>
<VARIABLE TYPE="nature">
	<NAME>X3F89A32E482301DA81730014220897B8</NAME>
	<OUTCOME>true</OUTCOME>
	<OUTCOME>false</OUTCOME>
	<PROPERTY>position = (0,0)</PROPERTY>
</VARIABLE>
<VARIABLE TYPE="nature">
	<NAME>X3F89BA5E482301DA8ECC0014220897B8</NAME>
	<OUTCOME>true</OUTCOME>
	<OUTCOME>false</OUTCOME>
	<PROPERTY>position = (0,0)</PROPERTY>
</VARIABLE>
<VARIABLE TYPE="nature">
	<NAME>X3F8A0297482301DA99460014220897B8</NAME>
	<OUTCOME>true</OUTCOME>
	<OUTCOME>false</OUTCOME>
	<PROPERTY>position = (0,0)</PROPERTY>
</VARIABLE>
<VARIABLE TYPE="nature">
	<NAME>X3FF5DB91482301DAA45A0014220897B8</NAME>
	<OUTCOME>true</OUTCOME>
	<OUTCOME>false</OUTCOME>
	<PROPERTY>position = (0,0)</PROPERTY>
</VARIABLE>
<VARIABLE TYPE="nature">
	<NAME>X35BF954C724B01DA9FD90014220897B8</NAME>
	<OUTCOME>true</OUTCOME>
	<OUTCOME>false</OUTCOME>
	<PROPERTY>position = (0,0)</PROPERTY>
</VARIABLE>
<VARIABLE TYPE="nature">
	<NAME>XEF7996EFC44E01DA98AD0014220897B8</NAME>
	<OUTCOME>true</OUTCOME>
	<OUTCOME>false</OUTCOME>
	<PROPERTY>position = (0,0)</PROPERTY>
</VARIABLE>
<VARIABLE TYPE="nature">
	<NAME>X3FA29F80482301DA8E7B0014220897B8</NAME>
	<OUTCOME>true</OUTCOME>
	<OUTCOME>false</OUTCOME>
	<PROPERTY>position = (0,0)</PROPERTY>
</VARIABLE>
<VARIABLE TYPE="nature">
	<NAME>XE2CA1C783FF8AB46A01ECE6F5706784D</NAME>
	<OUTCOME>true</OUTCOME>
	<OUTCOME>false</OUTCOME>
	<PROPERTY>position = (0,0)</PROPERTY>
</VARIABLE>
<VARIABLE TYPE="nature">
	<NAME>X385824F0482301DAA0CB0014220897B8</NAME>
	<OUTCOME>true</OUTCOME>
	<OUTCOME>false</OUTCOME>
	<PROPERTY>position = (0,0)</PROPERTY>
</VARIABLE>
<VARIABLE TYPE="nature">
	<NAME>X3FBBA642482301DAAA230014220897B8</NAME>
	<OUTCOME>true</OUTCOME>
	<OUTCOME>false</OUTCOME>
	<PROPERTY>position = (0,0)</PROPERTY>
</VARIABLE>
<VARIABLE TYPE="nature">
	<NAME>X3E0D9856482301DAB3410014220897B8</NAME>
	<OUTCOME>true</OUTCOME>
	<OUTCOME>false</OUTCOME>
	<PROPERTY>position = (0,0)</PROPERTY>
</VARIABLE>
<VARIABLE TYPE="nature">
	<NAME>X3E0DB27F482301DA97430014220897B8</NAME>
	<OUTCOME>true</OUTCOME>
	<OUTCOME>false</OUTCOME>
	<PROPERTY>position = (0,0)</PROPERTY>
</VARIABLE>
<VARIABLE TYPE="nature">
	<NAME>X3FA0F9CA482301DA8AD50014220897B8</NAME>
	<OUTCOME>true</OUTCOME>
	<OUTCOME>false</OUTCOME>
	<PROPERTY>position = (0,0)</PROPERTY>
</VARIABLE>
<VARIABLE TYPE="nature">
	<NAME>X3FC0E0DD482301DAA2FC0014220897B8</NAME>
	<OUTCOME>true</OUTCOME>
	<OUTCOME>false</OUTCOME>
	<PROPERTY>position = (0,0)</PROPERTY>
</VARIABLE>
<VARIABLE TYPE="nature">
	<NAME>X3D295927BA17DD45A86DEA5C96A97E36</NAME>
	<OUTCOME>true</OUTCOME>
	<OUTCOME>false</OUTCOME>
	<PROPERTY>position = (0,0)</PROPERTY>
</VARIABLE>
<VARIABLE TYPE="nature">
	<NAME>X3F95A4E1482301DAB4400014220897B8</NAME>
	<OUTCOME>true</OUTCOME>
	<OUTCOME>false</OUTCOME>
	<PROPERTY>position = (0,0)</PROPERTY>
</VARIABLE>
<VARIABLE TYPE="nature">
	<NAME>XC502B7F3D28001DA94AC0014220897B8</NAME>
	<OUTCOME>true</OUTCOME>
	<OUTCOME>false</OUTCOME>
	<PROPERTY>position = (0,0)</PROPERTY>
</VARIABLE>
<VARIABLE TYPE="nature">
	<NAME>XC60862D2D28001DAA3C10014220897B8</NAME>
	<OUTCOME>true</OUTCOME>
	<OUTCOME>false</OUTCOME>
	<PROPERTY>position = (0,0)</PROPERTY>
</VARIABLE>
<VARIABLE TYPE="nature">
	<NAME>XEF970072511FD94387B52531192D9519</NAME>
	<OUTCOME>true</OUTCOME>
	<OUTCOME>false</OUTCOME>
	<PROPERTY>position = (0,0)</PROPERTY>
</VARIABLE>
<VARIABLE TYPE="nature">
	<NAME>X3ED89708482301DA8E920014220897B8</NAME>
	<OUTCOME>true</OUTCOME>
	<OUTCOME>false</OUTCOME>
	<PROPERTY>position = (0,0)</PROPERTY>
</VARIABLE>
<VARIABLE TYPE="nature">
	<NAME>X3ED8AF1E482301DA92DB0014220897B8</NAME>
	<OUTCOME>true</OUTCOME>
	<OUTCOME>false</OUTCOME>
	<PROPERTY>position = (0,0)</PROPERTY>
</VARIABLE>
<VARIABLE TYPE="nature">
	<NAME>XE1626874E48601DA991F0014220897B8</NAME>
	<OUTCOME>true</OUTCOME>
	<OUTCOME>false</OUTCOME>
	<PROPERTY>position = (0,0)</PROPERTY>
</VARIABLE>
<VARIABLE TYPE="nature">
	<NAME>X3EFB1E60482301DA86100014220897B8</NAME>
	<OUTCOME>true</OUTCOME>
	<OUTCOME>false</OUTCOME>
	<PROPERTY>position = (0,0)</PROPERTY>
</VARIABLE>
<VARIABLE TYPE="nature">
	<NAME>X3FB605CB482301DAAF320014220897B8</NAME>
	<OUTCOME>true</OUTCOME>
	<OUTCOME>false</OUTCOME>
	<PROPERTY>position = (0,0)</PROPERTY>
</VARIABLE>
<VARIABLE TYPE="nature">
	<NAME>X37F50270482301DAB4680014220897B8</NAME>
	<OUTCOME>true</OUTCOME>
	<OUTCOME>false</OUTCOME>
	<PROPERTY>position = (0,0)</PROPERTY>
</VARIABLE>
<VARIABLE TYPE="nature">
	<NAME>X383228FF482301DABF560014220897B8</NAME>
	<OUTCOME>true</OUTCOME>
	<OUTCOME>false</OUTCOME>
	<PROPERTY>position = (0,0)</PROPERTY>
</VARIABLE>
<VARIABLE TYPE="nature">
	<NAME>X3FBDA984E9BAC24E89ACC7994A11A3B2</NAME>
	<OUTCOME>true</OUTCOME>
	<OUTCOME>false</OUTCOME>
	<PROPERTY>position = (0,0)</PROPERTY>
</VARIABLE>
<VARIABLE TYPE="nature">
	<NAME>X3FF1B022482301DA9B0F0014220897B8</NAME>
	<OUTCOME>true</OUTCOME>
	<OUTCOME>false</OUTCOME>
	<PROPERTY>position = (0,0)</PROPERTY>
</VARIABLE>
<VARIABLE TYPE="nature">
	<NAME>X7644B4C279FC3D46898E9A9F9E1E8EF5</NAME>
	<OUTCOME>true</OUTCOME>
	<OUTCOME>false</OUTCOME>
	<PROPERTY>position = (0,0)</PROPERTY>
</VARIABLE>
<VARIABLE TYPE="nature">
	<NAME>X94458F5F5727314E9460F881148FB3F2</NAME>
	<OUTCOME>true</OUTCOME>
	<OUTCOME>false</OUTCOME>
	<PROPERTY>position = (0,0)</PROPERTY>
</VARIABLE>
<VARIABLE TYPE="nature">
	<NAME>XCB5D685C8C9301DA8A450014220897B8</NAME>
	<OUTCOME>true</OUTCOME>
	<OUTCOME>false</OUTCOME>
	<PROPERTY>position = (0,0)</PROPERTY>
</VARIABLE>
<VARIABLE TYPE="nature">
	<NAME>XCB74ABF78C9301DAA1800014220897B8</NAME>
	<OUTCOME>true</OUTCOME>
	<OUTCOME>false</OUTCOME>
	<PROPERTY>position = (0,0)</PROPERTY>
</VARIABLE>
<VARIABLE TYPE="nature">
	<NAME>XEDD7D521AC52684ABEAA8F3A45EA8FFF</NAME>
	<OUTCOME>true</OUTCOME>
	<OUTCOME>false</OUTCOME>
	<PROPERTY>position = (0,0)</PROPERTY>
</VARIABLE>
<VARIABLE TYPE="nature">
	<NAME>X7577524DA36801DA95DB0014220897B8</NAME>
	<OUTCOME>true</OUTCOME>
	<OUTCOME>false</OUTCOME>
	<PROPERTY>position = (0,0)</PROPERTY>
</VARIABLE>
<VARIABLE TYPE="nature">
	<NAME>X3F7E39AB482301DA9E150014220897B8</NAME>
	<OUTCOME>true</OUTCOME>
	<OUTCOME>false</OUTCOME>
	<PROPERTY>position = (0,0)</PROPERTY>
</VARIABLE>
<VARIABLE TYPE="nature">
	<NAME>X3893E7CB482301DAB9050014220897B8</NAME>
	<OUTCOME>true</OUTCOME>
	<OUTCOME>false</OUTCOME>
	<PROPERTY>position = (0,0)</PROPERTY>
</VARIABLE>
<VARIABLE TYPE="nature">
	<NAME>X38940528482301DAAA0B0014220897B8</NAME>
	<OUTCOME>true</OUTCOME>
	<OUTCOME>false</OUTCOME>
	<PROPERTY>position = (0,0)</PROPERTY>
</VARIABLE>
<VARIABLE TYPE="nature">
	<NAME>X3ECBD056482301DA95FA0014220897B8</NAME>
	<OUTCOME>true</OUTCOME>
	<OUTCOME>false</OUTCOME>
	<PROPERTY>position = (0,0)</PROPERTY>
</VARIABLE>
<VARIABLE TYPE="nature">
	<NAME>X3F29BA8B482301DA916A0014220897B8</NAME>
	<OUTCOME>true</OUTCOME>
	<OUTCOME>false</OUTCOME>
	<PROPERTY>position = (0,0)</PROPERTY>
</VARIABLE>
<VARIABLE TYPE="nature">
	<NAME>X3F62BC3D482301DAA62D0014220897B8</NAME>
	<OUTCOME>true</OUTCOME>
	<OUTCOME>false</OUTCOME>
	<PROPERTY>position = (0,0)</PROPERTY>
</VARIABLE>
<VARIABLE TYPE="nature">
	<NAME>X402CEEE6482301DAACCC0014220897B8</NAME>
	<OUTCOME>true</OUTCOME>
	<OUTCOME>false</OUTCOME>
	<PROPERTY>position = (0,0)</PROPERTY>
</VARIABLE>
<VARIABLE TYPE="nature">
	<NAME>X402D06F2482301DAB30E0014220897B8</NAME>
	<OUTCOME>true</OUTCOME>
	<OUTCOME>false</OUTCOME>
	<PROPERTY>position = (0,0)</PROPERTY>
</VARIABLE>
<VARIABLE TYPE="nature">
	<NAME>X3F629B79482301DA8C8F0014220897B8</NAME>
	<OUTCOME>true</OUTCOME>
	<OUTCOME>false</OUTCOME>
	<PROPERTY>position = (0,0)</PROPERTY>
</VARIABLE>
<VARIABLE TYPE="nature">
	<NAME>XA8D746FF953F01DA9E840014220897B8</NAME>
	<OUTCOME>true</OUTCOME>
	<OUTCOME>false</OUTCOME>
	<PROPERTY>position = (0,0)</PROPERTY>
</VARIABLE>
<VARIABLE TYPE="nature">
	<NAME>XA8FA6230953F01DAB2BB0014220897B8</NAME>
	<OUTCOME>true</OUTCOME>
	<OUTCOME>false</OUTCOME>
	<PROPERTY>position = (0,0)</PROPERTY>
</VARIABLE>
<VARIABLE TYPE="nature">
	<NAME>XB430B53F8C9301DAB4260014220897B8</NAME>
	<OUTCOME>true</OUTCOME>
	<OUTCOME>false</OUTCOME>
	<PROPERTY>position = (0,0)</PROPERTY>
</VARIABLE>
<VARIABLE TYPE="nature">
	<NAME>XB446CA988C9301DAB96D0014220897B8</NAME>
	<OUTCOME>true</OUTCOME>
	<OUTCOME>false</OUTCOME>
	<PROPERTY>position = (0,0)</PROPERTY>
</VARIABLE>
<VARIABLE TYPE="nature">
	<NAME>X3F98A3AA482301DA8AE90014220897B8</NAME>
	<OUTCOME>true</OUTCOME>
	<OUTCOME>false</OUTCOME>
	<PROPERTY>position = (0,0)</PROPERTY>
</VARIABLE>
<VARIABLE TYPE="nature">
	<NAME>X402B1D51482301DAA0F90014220897B8</NAME>
	<OUTCOME>true</OUTCOME>
	<OUTCOME>false</OUTCOME>
	<PROPERTY>position = (0,0)</PROPERTY>
</VARIABLE>
<VARIABLE TYPE="nature">
	<NAME>X25D6D9AB33AF0D418B2D40366413116E</NAME>
	<OUTCOME>true</OUTCOME>
	<OUTCOME>false</OUTCOME>
	<PROPERTY>position = (0,0)</PROPERTY>
</VARIABLE>
<VARIABLE TYPE="nature">
	<NAME>XFAB237C714D4EA4CAA738FB4FC14A168</NAME>
	<OUTCOME>true</OUTCOME>
	<OUTCOME>false</OUTCOME>
	<PROPERTY>position = (0,0)</PROPERTY>
</VARIABLE>
<DEFINITION>
<FOR>X3FB7E6DC482301DAADD00014220897B8</FOR>
	<GIVEN>XFAB237C714D4EA4CAA738FB4FC14A168</GIVEN>
<TABLE>
0.045454545454545456 0.9545454545454546 
0.010530421216848674 0.9894695787831513 
</TABLE>
</DEFINITION>
<DEFINITION>
<FOR>X3F9E1B1C482301DA849B0014220897B8</FOR>
	<GIVEN>XFAB237C714D4EA4CAA738FB4FC14A168</GIVEN>
<TABLE>
0.045454545454545456 0.9545454545454546 
0.02379095163806552 0.9762090483619345 
</TABLE>
</DEFINITION>
<DEFINITION>
<FOR>X3FF5EF5A482301DAAC020014220897B8</FOR>
	<GIVEN>XFAB237C714D4EA4CAA738FB4FC14A168</GIVEN>
	<GIVEN>X3F9E1B1C482301DA849B0014220897B8</GIVEN>
<TABLE>
0.5 0.5 
0.045454545454545456 0.9545454545454546 
0.016129032258064516 0.9838709677419355 
0.09704472843450479 0.9029552715654952 
</TABLE>
</DEFINITION>
<DEFINITION>
<FOR>X3F7A9E98482301DAB7650014220897B8</FOR>
	<GIVEN>XFAB237C714D4EA4CAA738FB4FC14A168</GIVEN>
<TABLE>
0.4090909090909091 0.5909090909090909 
0.019890795631825272 0.9801092043681747 
</TABLE>
</DEFINITION>
<DEFINITION>
<FOR>X3E143547482301DA86F60014220897B8</FOR>
	<GIVEN>XFAB237C714D4EA4CAA738FB4FC14A168</GIVEN>
	<GIVEN>X3FF5EF5A482301DAAC020014220897B8</GIVEN>
<TABLE>
0.5 0.5 
0.045454545454545456 0.9545454545454546 
0.004098360655737705 0.9959016393442623 
0.07708871662360034 0.9229112833763996 
</TABLE>
</DEFINITION>
<DEFINITION>
<FOR>X024CC38D8A35BE40967998EC3D62DC6C</FOR>
	<GIVEN>XFAB237C714D4EA4CAA738FB4FC14A168</GIVEN>
<TABLE>
0.045454545454545456 0.9545454545454546 
0.012870514820592824 0.9871294851794071 
</TABLE>
</DEFINITION>
<DEFINITION>
<FOR>X044DA5BA2A9EDD44A6A87E8E21B75AAB</FOR>
	<GIVEN>XFAB237C714D4EA4CAA738FB4FC14A168</GIVEN>
	<GIVEN>X024CC38D8A35BE40967998EC3D62DC6C</GIVEN>
<TABLE>
0.5 0.5 
0.045454545454545456 0.9545454545454546 
0.9705882352941176 0.029411764705882353 
3.9494470774091627E-4 0.9996050552922591 
</TABLE>
</DEFINITION>
<DEFINITION>
<FOR>X3859A45F482301DA8A7C0014220897B8</FOR>
	<GIVEN>XFAB237C714D4EA4CAA738FB4FC14A168</GIVEN>
	<GIVEN>X024CC38D8A35BE40967998EC3D62DC6C</GIVEN>
<TABLE>
0.5 0.5 
0.045454545454545456 0.9545454545454546 
0.8529411764705882 0.14705882352941177 
3.9494470774091627E-4 0.9996050552922591 
</TABLE>
</DEFINITION>
<DEFINITION>
<FOR>X3CDA0A7910F0154B8642D4E79609B2FB</FOR>
	<GIVEN>XFAB237C714D4EA4CAA738FB4FC14A168</GIVEN>
	<GIVEN>X024CC38D8A35BE40967998EC3D62DC6C</GIVEN>
<TABLE>
0.5 0.5 
0.045454545454545456 0.9545454545454546 
0.9705882352941176 0.029411764705882353 
3.9494470774091627E-4 0.9996050552922591 
</TABLE>
</DEFINITION>
<DEFINITION>
<FOR>X3F25EDDA482301DA9FA90014220897B8</FOR>
	<GIVEN>XFAB237C714D4EA4CAA738FB4FC14A168</GIVEN>
	<GIVEN>X024CC38D8A35BE40967998EC3D62DC6C</GIVEN>
<TABLE>
0.5 0.5 
0.045454545454545456 0.9545454545454546 
0.9705882352941176 0.029411764705882353 
3.9494470774091627E-4 0.9996050552922591 
</TABLE>
</DEFINITION>
<DEFINITION>
<FOR>X3F263342482301DAB7BE0014220897B8</FOR>
	<GIVEN>XFAB237C714D4EA4CAA738FB4FC14A168</GIVEN>
	<GIVEN>X024CC38D8A35BE40967998EC3D62DC6C</GIVEN>
<TABLE>
0.5 0.5 
0.045454545454545456 0.9545454545454546 
0.9705882352941176 0.029411764705882353 
3.9494470774091627E-4 0.9996050552922591 
</TABLE>
</DEFINITION>
<DEFINITION>
<FOR>X3F2675A7482301DAA0760014220897B8</FOR>
	<GIVEN>XFAB237C714D4EA4CAA738FB4FC14A168</GIVEN>
	<GIVEN>X024CC38D8A35BE40967998EC3D62DC6C</GIVEN>
<TABLE>
0.5 0.5 
0.045454545454545456 0.9545454545454546 
0.9705882352941176 0.029411764705882353 
3.9494470774091627E-4 0.9996050552922591 
</TABLE>
</DEFINITION>
<DEFINITION>
<FOR>X3F2692BE482301DA83C20014220897B8</FOR>
	<GIVEN>XFAB237C714D4EA4CAA738FB4FC14A168</GIVEN>
	<GIVEN>X024CC38D8A35BE40967998EC3D62DC6C</GIVEN>
<TABLE>
0.5 0.5 
0.045454545454545456 0.9545454545454546 
0.9705882352941176 0.029411764705882353 
3.9494470774091627E-4 0.9996050552922591 
</TABLE>
</DEFINITION>
<DEFINITION>
<FOR>X3F26AB89482301DAAF560014220897B8</FOR>
	<GIVEN>XFAB237C714D4EA4CAA738FB4FC14A168</GIVEN>
	<GIVEN>X024CC38D8A35BE40967998EC3D62DC6C</GIVEN>
<TABLE>
0.5 0.5 
0.045454545454545456 0.9545454545454546 
0.9705882352941176 0.029411764705882353 
3.9494470774091627E-4 0.9996050552922591 
</TABLE>
</DEFINITION>
<DEFINITION>
<FOR>X3F7027DD482301DA99C60014220897B8</FOR>
	<GIVEN>XFAB237C714D4EA4CAA738FB4FC14A168</GIVEN>
	<GIVEN>X3859A45F482301DA8A7C0014220897B8</GIVEN>
<TABLE>
0.5 0.5 
0.045454545454545456 0.9545454545454546 
0.9666666666666667 0.03333333333333333 
0.0011829652996845426 0.9988170347003155 
</TABLE>
</DEFINITION>
<DEFINITION>
<FOR>X3F71DDA5482301DA93750014220897B8</FOR>
	<GIVEN>XFAB237C714D4EA4CAA738FB4FC14A168</GIVEN>
	<GIVEN>X3F7027DD482301DA99C60014220897B8</GIVEN>
<TABLE>
0.5 0.5 
0.045454545454545456 0.9545454545454546 
0.96875 0.03125 
3.946329913180742E-4 0.999605367008682 
</TABLE>
</DEFINITION>
<DEFINITION>
<FOR>X3F8A6227482301DAB0E80014220897B8</FOR>
	<GIVEN>XFAB237C714D4EA4CAA738FB4FC14A168</GIVEN>
	<GIVEN>X024CC38D8A35BE40967998EC3D62DC6C</GIVEN>
<TABLE>
0.5 0.5 
0.045454545454545456 0.9545454545454546 
0.9705882352941176 0.029411764705882353 
0.001184834123222749 0.9988151658767772 
</TABLE>
</DEFINITION>
<DEFINITION>
<FOR>X3F8A7AFC482301DA820F0014220897B8</FOR>
	<GIVEN>XFAB237C714D4EA4CAA738FB4FC14A168</GIVEN>
	<GIVEN>X024CC38D8A35BE40967998EC3D62DC6C</GIVEN>
<TABLE>
0.5 0.5 
0.045454545454545456 0.9545454545454546 
0.9705882352941176 0.029411764705882353 
3.9494470774091627E-4 0.9996050552922591 
</TABLE>
</DEFINITION>
<DEFINITION>
<FOR>X8B6F912BC431D147A4C1762C571ADC92</FOR>
	<GIVEN>XFAB237C714D4EA4CAA738FB4FC14A168</GIVEN>
	<GIVEN>X024CC38D8A35BE40967998EC3D62DC6C</GIVEN>
<TABLE>
0.5 0.5 
0.045454545454545456 0.9545454545454546 
0.9705882352941176 0.029411764705882353 
3.9494470774091627E-4 0.9996050552922591 
</TABLE>
</DEFINITION>
<DEFINITION>
<FOR>XE436E7D798B26145A2C57A15A999F9F4</FOR>
	<GIVEN>XFAB237C714D4EA4CAA738FB4FC14A168</GIVEN>
	<GIVEN>X024CC38D8A35BE40967998EC3D62DC6C</GIVEN>
<TABLE>
0.5 0.5 
0.045454545454545456 0.9545454545454546 
0.9705882352941176 0.029411764705882353 
3.9494470774091627E-4 0.9996050552922591 
</TABLE>
</DEFINITION>
<DEFINITION>
<FOR>X2AB6C8F4AD8D01DA9A590014220897B8</FOR>
	<GIVEN>XFAB237C714D4EA4CAA738FB4FC14A168</GIVEN>
	<GIVEN>X3E143547482301DA86F60014220897B8</GIVEN>
<TABLE>
0.5 0.5 
0.045454545454545456 0.9545454545454546 
0.2388888888888889 0.7611111111111111 
0.010477787091366304 0.9895222129086337 
</TABLE>
</DEFINITION>
<DEFINITION>
<FOR>X2ACDEF28AD8D01DAAB040014220897B8</FOR>
	<GIVEN>XFAB237C714D4EA4CAA738FB4FC14A168</GIVEN>
	<GIVEN>X2AB6C8F4AD8D01DA9A590014220897B8</GIVEN>
<TABLE>
0.5 0.5 
0.045454545454545456 0.9545454545454546 
0.9852941176470589 0.014705882352941176 
0.0012009607686148918 0.9987990392313851 
</TABLE>
</DEFINITION>
<DEFINITION>
<FOR>X3E13E28A482301DA94F90014220897B8</FOR>
	<GIVEN>XFAB237C714D4EA4CAA738FB4FC14A168</GIVEN>
	<GIVEN>X3E143547482301DA86F60014220897B8</GIVEN>
<TABLE>
0.5 0.5 
0.045454545454545456 0.9545454545454546 
0.7722222222222223 0.22777777777777777 
0.03478625314333613 0.9652137468566638 
</TABLE>
</DEFINITION>
<DEFINITION>
<FOR>X3E13FE61482301DA82BC0014220897B8</FOR>
	<GIVEN>XFAB237C714D4EA4CAA738FB4FC14A168</GIVEN>
	<GIVEN>X3E13E28A482301DA94F90014220897B8</GIVEN>
<TABLE>
0.5 0.5 
0.045454545454545456 0.9545454545454546 
0.8603603603603603 0.13963963963963963 
0.014931740614334471 0.9850682593856656 
</TABLE>
</DEFINITION>
<DEFINITION>
<FOR>X3E1451C9482301DA86E70014220897B8</FOR>
	<GIVEN>XFAB237C714D4EA4CAA738FB4FC14A168</GIVEN>
	<GIVEN>X3E13E28A482301DA94F90014220897B8</GIVEN>
<TABLE>
0.5 0.5 
0.045454545454545456 0.9545454545454546 
0.5540540540540541 0.44594594594594594 
0.016638225255972697 0.9833617747440273 
</TABLE>
</DEFINITION>
<DEFINITION>
<FOR>X3E146E90482301DABBB10014220897B8</FOR>
	<GIVEN>XFAB237C714D4EA4CAA738FB4FC14A168</GIVEN>
	<GIVEN>X2AB6C8F4AD8D01DA9A590014220897B8</GIVEN>
<TABLE>
0.5 0.5 
0.045454545454545456 0.9545454545454546 
0.39705882352941174 0.6029411764705882 
0.018014411529223378 0.9819855884707767 
</TABLE>
</DEFINITION>
<DEFINITION>
<FOR>X3E14CD08482301DAB6EC0014220897B8</FOR>
	<GIVEN>XFAB237C714D4EA4CAA738FB4FC14A168</GIVEN>
	<GIVEN>X2AB6C8F4AD8D01DA9A590014220897B8</GIVEN>
<TABLE>
0.5 0.5 
0.045454545454545456 0.9545454545454546 
0.4852941176470588 0.5147058823529411 
0.007606084867894315 0.9923939151321057 
</TABLE>
</DEFINITION>
<DEFINITION>
<FOR>X3E14EACA482301DAAE540014220897B8</FOR>
	<GIVEN>XFAB237C714D4EA4CAA738FB4FC14A168</GIVEN>
	<GIVEN>X3E14CD08482301DAB6EC0014220897B8</GIVEN>
<TABLE>
0.5 0.5 
0.045454545454545456 0.9545454545454546 
0.8269230769230769 0.17307692307692307 
0.0027844073190135244 0.9972155926809865 
</TABLE>
</DEFINITION>
<DEFINITION>
<FOR>X3EFB035B482301DAB45E0014220897B8</FOR>
	<GIVEN>XFAB237C714D4EA4CAA738FB4FC14A168</GIVEN>
	<GIVEN>X3E1451C9482301DA86E70014220897B8</GIVEN>
<TABLE>
0.5 0.5 
0.045454545454545456 0.9545454545454546 
0.36419753086419754 0.6358024691358025 
0.015391014975041598 0.9846089850249584 
</TABLE>
</DEFINITION>
<DEFINITION>
<FOR>X3EFB868B482301DAB9520014220897B8</FOR>
	<GIVEN>XFAB237C714D4EA4CAA738FB4FC14A168</GIVEN>
	<GIVEN>X3EFB035B482301DAB45E0014220897B8</GIVEN>
<TABLE>
0.5 0.5 
0.045454545454545456 0.9545454545454546 
0.5104166666666666 0.4895833333333333 
0.004453441295546558 0.9955465587044534 
</TABLE>
</DEFINITION>
<DEFINITION>
<FOR>X3F092E12482301DA988C0014220897B8</FOR>
	<GIVEN>XFAB237C714D4EA4CAA738FB4FC14A168</GIVEN>
	<GIVEN>X2AB6C8F4AD8D01DA9A590014220897B8</GIVEN>
<TABLE>
0.5 0.5 
0.045454545454545456 0.9545454545454546 
0.22058823529411764 0.7794117647058824 
0.018014411529223378 0.9819855884707767 
</TABLE>
</DEFINITION>
<DEFINITION>
<FOR>X3F09D396482301DA90140014220897B8</FOR>
	<GIVEN>XFAB237C714D4EA4CAA738FB4FC14A168</GIVEN>
	<GIVEN>X3F092E12482301DA988C0014220897B8</GIVEN>
<TABLE>
0.5 0.5 
0.045454545454545456 0.9545454545454546 
0.8166666666666667 0.18333333333333332 
0.002793296089385475 0.9972067039106145 
</TABLE>
</DEFINITION>
<DEFINITION>
<FOR>X3F2C553A482301DA988D0014220897B8</FOR>
	<GIVEN>XFAB237C714D4EA4CAA738FB4FC14A168</GIVEN>
	<GIVEN>X3F092E12482301DA988C0014220897B8</GIVEN>
<TABLE>
0.5 0.5 
0.045454545454545456 0.9545454545454546 
0.8833333333333333 0.11666666666666667 
0.0019952114924181963 0.9980047885075818 
</TABLE>
</DEFINITION>
<DEFINITION>
<FOR>X3F35D5F8482301DAB6670014220897B8</FOR>
	<GIVEN>XFAB237C714D4EA4CAA738FB4FC14A168</GIVEN>
	<GIVEN>X3EFB868B482301DAB9520014220897B8</GIVEN>
<TABLE>
0.5 0.5 
0.045454545454545456 0.9545454545454546 
0.95 0.05 
0.01077414205905826 0.9892258579409418 
</TABLE>
</DEFINITION>
<DEFINITION>
<FOR>X4024B868482301DA95CC0014220897B8</FOR>
	<GIVEN>XFAB237C714D4EA4CAA738FB4FC14A168</GIVEN>
	<GIVEN>X3E14CD08482301DAB6EC0014220897B8</GIVEN>
<TABLE>
0.5 0.5 
0.045454545454545456 0.9545454545454546 
0.8653846153846154 0.1346153846153846 
3.977724741447892E-4 0.9996022275258553 
</TABLE>
</DEFINITION>
<DEFINITION>
<FOR>X62402D69717101DAA7FD0014220897B8</FOR>
	<GIVEN>XFAB237C714D4EA4CAA738FB4FC14A168</GIVEN>
	<GIVEN>X4024B868482301DA95CC0014220897B8</GIVEN>
<TABLE>
0.5 0.5 
0.045454545454545456 0.9545454545454546 
0.5 0.5 
0.004365079365079365 0.9956349206349207 
</TABLE>
</DEFINITION>
<DEFINITION>
<FOR>X66AD7558CF4F01DA945B0014220897B8</FOR>
	<GIVEN>XFAB237C714D4EA4CAA738FB4FC14A168</GIVEN>
	<GIVEN>X3F2C553A482301DA988D0014220897B8</GIVEN>
<TABLE>
0.5 0.5 
0.045454545454545456 0.9545454545454546 
0.9137931034482759 0.08620689655172414 
3.9872408293460925E-4 0.9996012759170654 
</TABLE>
</DEFINITION>
<DEFINITION>
<FOR>XC3CC6CBD07E201DBA32F0014220897B8</FOR>
	<GIVEN>XFAB237C714D4EA4CAA738FB4FC14A168</GIVEN>
	<GIVEN>X3EFB868B482301DAB9520014220897B8</GIVEN>
<TABLE>
0.5 0.5 
0.045454545454545456 0.9545454545454546 
0.8166666666666667 0.18333333333333332 
0.003591380686352753 0.9964086193136472 
</TABLE>
</DEFINITION>
<DEFINITION>
<FOR>XC9B67667114D01DBA4D90014220897B8</FOR>
	<GIVEN>XFAB237C714D4EA4CAA738FB4FC14A168</GIVEN>
	<GIVEN>X4024B868482301DA95CC0014220897B8</GIVEN>
<TABLE>
0.5 0.5 
0.045454545454545456 0.9545454545454546 
0.6739130434782609 0.32608695652173914 
0.001984126984126984 0.998015873015873 
</TABLE>
</DEFINITION>
<DEFINITION>
<FOR>XCA1EBEB6114D01DB87290014220897B8</FOR>
	<GIVEN>XFAB237C714D4EA4CAA738FB4FC14A168</GIVEN>
	<GIVEN>XC9B67667114D01DBA4D90014220897B8</GIVEN>
<TABLE>
0.5 0.5 
0.045454545454545456 0.9545454545454546 
0.8611111111111112 0.1388888888888889 
3.952569169960474E-4 0.999604743083004 
</TABLE>
</DEFINITION>
<DEFINITION>
<FOR>XCA4E7685114D01DB8FEC0014220897B8</FOR>
	<GIVEN>XFAB237C714D4EA4CAA738FB4FC14A168</GIVEN>
	<GIVEN>XCA1EBEB6114D01DB87290014220897B8</GIVEN>
<TABLE>
0.5 0.5 
0.045454545454545456 0.9545454545454546 
0.96875 0.03125 
0.0011838989739542227 0.9988161010260458 
</TABLE>
</DEFINITION>
<DEFINITION>
<FOR>XE442B5C8B63101DA9C210014220897B8</FOR>
	<GIVEN>XFAB237C714D4EA4CAA738FB4FC14A168</GIVEN>
	<GIVEN>XCA1EBEB6114D01DB87290014220897B8</GIVEN>
<TABLE>
0.5 0.5 
0.045454545454545456 0.9545454545454546 
0.78125 0.21875 
3.946329913180742E-4 0.999605367008682 
</TABLE>
</DEFINITION>
<DEFINITION>
<FOR>X3F0946D2482301DA974D0014220897B8</FOR>
	<GIVEN>XFAB237C714D4EA4CAA738FB4FC14A168</GIVEN>
	<GIVEN>X3F092E12482301DA988C0014220897B8</GIVEN>
<TABLE>
0.5 0.5 
0.045454545454545456 0.9545454545454546 
0.65 0.35 
0.012370311252992818 0.9876296887470072 
</TABLE>
</DEFINITION>
<DEFINITION>
<FOR>X3F0989B9482301DAB76D0014220897B8</FOR>
	<GIVEN>XFAB237C714D4EA4CAA738FB4FC14A168</GIVEN>
	<GIVEN>X3F0946D2482301DA974D0014220897B8</GIVEN>
<TABLE>
0.5 0.5 
0.045454545454545456 0.9545454545454546 
0.8142857142857143 0.18571428571428572 
4.0064102564102563E-4 0.9995993589743589 
</TABLE>
</DEFINITION>
<DEFINITION>
<FOR>X3F09A19D482301DAB8EF0014220897B8</FOR>
	<GIVEN>XFAB237C714D4EA4CAA738FB4FC14A168</GIVEN>
	<GIVEN>X3F0989B9482301DAB76D0014220897B8</GIVEN>
<TABLE>
0.5 0.5 
0.045454545454545456 0.9545454545454546 
0.8448275862068966 0.15517241379310345 
0.0043859649122807015 0.9956140350877193 
</TABLE>
</DEFINITION>
<DEFINITION>
<FOR>X3F09BC16482301DA88690014220897B8</FOR>
	<GIVEN>XFAB237C714D4EA4CAA738FB4FC14A168</GIVEN>
	<GIVEN>X3F09A19D482301DAB8EF0014220897B8</GIVEN>
<TABLE>
0.5 0.5 
0.045454545454545456 0.9545454545454546 
0.9166666666666666 0.08333333333333333 
3.990422984836393E-4 0.9996009577015164 
</TABLE>
</DEFINITION>
<DEFINITION>
<FOR>X3E1488D7482301DA8CE50014220897B8</FOR>
	<GIVEN>XFAB237C714D4EA4CAA738FB4FC14A168</GIVEN>
	<GIVEN>X4024B868482301DA95CC0014220897B8</GIVEN>
<TABLE>
0.5 0.5 
0.045454545454545456 0.9545454545454546 
0.7608695652173914 0.2391304347826087 
0.004365079365079365 0.9956349206349207 
</TABLE>
</DEFINITION>
<DEFINITION>
<FOR>X3EFBA06E482301DABF0A0014220897B8</FOR>
	<GIVEN>XFAB237C714D4EA4CAA738FB4FC14A168</GIVEN>
	<GIVEN>X3E146E90482301DABBB10014220897B8</GIVEN>
<TABLE>
0.5 0.5 
0.045454545454545456 0.9545454545454546 
0.4583333333333333 0.5416666666666666 
0.010024057738572574 0.9899759422614274 
</TABLE>
</DEFINITION>
<DEFINITION>
<FOR>X3EFBBBCD482301DAB4290014220897B8</FOR>
	<GIVEN>XFAB237C714D4EA4CAA738FB4FC14A168</GIVEN>
	<GIVEN>X3EFBA06E482301DABF0A0014220897B8</GIVEN>
<TABLE>
0.5 0.5 
0.045454545454545456 0.9545454545454546 
0.7413793103448276 0.25862068965517243 
0.033094098883572565 0.9669059011164274 
</TABLE>
</DEFINITION>
<DEFINITION>
<FOR>X3EFC0134482301DA9A810014220897B8</FOR>
	<GIVEN>XFAB237C714D4EA4CAA738FB4FC14A168</GIVEN>
	<GIVEN>X3E146E90482301DABBB10014220897B8</GIVEN>
<TABLE>
0.5 0.5 
0.045454545454545456 0.9545454545454546 
0.2638888888888889 0.7361111111111112 
0.0036086607858861267 0.9963913392141138 
</TABLE>
</DEFINITION>
<DEFINITION>
<FOR>X3F6CF7A8482301DAB86A0014220897B8</FOR>
	<GIVEN>XFAB237C714D4EA4CAA738FB4FC14A168</GIVEN>
<TABLE>
0.22727272727272727 0.7727272727272727 
0.012090483619344774 0.9879095163806553 
</TABLE>
</DEFINITION>
<DEFINITION>
<FOR>X3FF54131482301DAA18D0014220897B8</FOR>
	<GIVEN>XFAB237C714D4EA4CAA738FB4FC14A168</GIVEN>
	<GIVEN>X3FF5EF5A482301DAAC020014220897B8</GIVEN>
<TABLE>
0.5 0.5 
0.045454545454545456 0.9545454545454546 
0.004098360655737705 0.9959016393442623 
0.02885443583118002 0.97114556416882 
</TABLE>
</DEFINITION>
<DEFINITION>
<FOR>XAFEE7F9609B04949BE5A3F8C0E0F4C8C</FOR>
	<GIVEN>XFAB237C714D4EA4CAA738FB4FC14A168</GIVEN>
	<GIVEN>X3FF5EF5A482301DAAC020014220897B8</GIVEN>
<TABLE>
0.5 0.5 
0.045454545454545456 0.9545454545454546 
0.004098360655737705 0.9959016393442623 
0.03488372093023256 0.9651162790697675 
</TABLE>
</DEFINITION>
<DEFINITION>
<FOR>X3F86C6ED482301DA97060014220897B8</FOR>
	<GIVEN>XFAB237C714D4EA4CAA738FB4FC14A168</GIVEN>
<TABLE>
0.045454545454545456 0.9545454545454546 
0.012870514820592824 0.9871294851794071 
</TABLE>
</DEFINITION>
<DEFINITION>
<FOR>X3832462B482301DAB5800014220897B8</FOR>
	<GIVEN>XFAB237C714D4EA4CAA738FB4FC14A168</GIVEN>
	<GIVEN>XAFEE7F9609B04949BE5A3F8C0E0F4C8C</GIVEN>
<TABLE>
0.5 0.5 
0.045454545454545456 0.9545454545454546 
0.23170731707317074 0.7682926829268293 
0.002012882447665056 0.9979871175523349 
</TABLE>
</DEFINITION>
<DEFINITION>
<FOR>X77A67498A36801DAA4650014220897B8</FOR>
	<GIVEN>XFAB237C714D4EA4CAA738FB4FC14A168</GIVEN>
	<GIVEN>X3FF5EF5A482301DAAC020014220897B8</GIVEN>
<TABLE>
0.5 0.5 
0.045454545454545456 0.9545454545454546 
0.004098360655737705 0.9959016393442623 
0.0710594315245478 0.9289405684754521 
</TABLE>
</DEFINITION>
<DEFINITION>
<FOR>X385A53B3482301DAA6800014220897B8</FOR>
	<GIVEN>XFAB237C714D4EA4CAA738FB4FC14A168</GIVEN>
<TABLE>
0.13636363636363635 0.8636363636363636 
0.021450858034321372 0.9785491419656787 
</TABLE>
</DEFINITION>
<DEFINITION>
<FOR>X3F838959482301DABF5D0014220897B8</FOR>
	<GIVEN>XFAB237C714D4EA4CAA738FB4FC14A168</GIVEN>
	<GIVEN>X3F7A9E98482301DAB7650014220897B8</GIVEN>
<TABLE>
0.5 0.5 
0.07142857142857142 0.9285714285714286 
0.17307692307692307 0.8269230769230769 
0.007557677008750994 0.992442322991249 
</TABLE>
</DEFINITION>
<DEFINITION>
<FOR>X768A5783A36801DA9E2C0014220897B8</FOR>
	<GIVEN>XFAB237C714D4EA4CAA738FB4FC14A168</GIVEN>
	<GIVEN>X77A67498A36801DAA4650014220897B8</GIVEN>
<TABLE>
0.5 0.5 
0.045454545454545456 0.9545454545454546 
0.09036144578313253 0.9096385542168675 
0.005416666666666667 0.9945833333333334 
</TABLE>
</DEFINITION>
<DEFINITION>
<FOR>X0B69F41021D1DA4F9F265746DB9AB25D</FOR>
	<GIVEN>XFAB237C714D4EA4CAA738FB4FC14A168</GIVEN>
	<GIVEN>X3832462B482301DAB5800014220897B8</GIVEN>
<TABLE>
0.5 0.5 
0.045454545454545456 0.9545454545454546 
0.7916666666666666 0.20833333333333334 
0.001966955153422502 0.9980330448465775 
</TABLE>
</DEFINITION>
<DEFINITION>
<FOR>X30C8251C5B878346B7466D3822D5C857</FOR>
	<GIVEN>XFAB237C714D4EA4CAA738FB4FC14A168</GIVEN>
	<GIVEN>X0B69F41021D1DA4F9F265746DB9AB25D</GIVEN>
<TABLE>
0.5 0.5 
0.045454545454545456 0.9545454545454546 
0.875 0.125 
3.933910306845004E-4 0.9996066089693155 
</TABLE>
</DEFINITION>
<DEFINITION>
<FOR>X3849AA76482301DAA9190014220897B8</FOR>
	<GIVEN>XFAB237C714D4EA4CAA738FB4FC14A168</GIVEN>
	<GIVEN>X30C8251C5B878346B7466D3822D5C857</GIVEN>
<TABLE>
0.5 0.5 
0.045454545454545456 0.9545454545454546 
0.9545454545454546 0.045454545454545456 
3.9308176100628933E-4 0.9996069182389937 
</TABLE>
</DEFINITION>
<DEFINITION>
<FOR>X388E9BAC482301DABEE80014220897B8</FOR>
	<GIVEN>XFAB237C714D4EA4CAA738FB4FC14A168</GIVEN>
	<GIVEN>X30C8251C5B878346B7466D3822D5C857</GIVEN>
<TABLE>
0.5 0.5 
0.045454545454545456 0.9545454545454546 
0.9545454545454546 0.045454545454545456 
0.0011792452830188679 0.9988207547169812 
</TABLE>
</DEFINITION>
<DEFINITION>
<FOR>X636FB0D78E2501DA9ADF0014220897B8</FOR>
	<GIVEN>XFAB237C714D4EA4CAA738FB4FC14A168</GIVEN>
	<GIVEN>X388E9BAC482301DABEE80014220897B8</GIVEN>
<TABLE>
0.5 0.5 
0.045454545454545456 0.9545454545454546 
0.9583333333333334 0.041666666666666664 
3.933910306845004E-4 0.9996066089693155 
</TABLE>
</DEFINITION>
<DEFINITION>
<FOR>X63802F088E2501DABA130014220897B8</FOR>
	<GIVEN>XFAB237C714D4EA4CAA738FB4FC14A168</GIVEN>
	<GIVEN>X388E9BAC482301DABEE80014220897B8</GIVEN>
<TABLE>
0.5 0.5 
0.045454545454545456 0.9545454545454546 
0.9583333333333334 0.041666666666666664 
3.933910306845004E-4 0.9996066089693155 
</TABLE>
</DEFINITION>
<DEFINITION>
<FOR>X7B0DC94007EB474CA78635D4C2A36F44</FOR>
	<GIVEN>XFAB237C714D4EA4CAA738FB4FC14A168</GIVEN>
	<GIVEN>X30C8251C5B878346B7466D3822D5C857</GIVEN>
<TABLE>
0.5 0.5 
0.045454545454545456 0.9545454545454546 
0.9545454545454546 0.045454545454545456 
3.9308176100628933E-4 0.9996069182389937 
</TABLE>
</DEFINITION>
<DEFINITION>
<FOR>X9D3B73F754A347448EE82A1DCC24763E</FOR>
	<GIVEN>XFAB237C714D4EA4CAA738FB4FC14A168</GIVEN>
	<GIVEN>X30C8251C5B878346B7466D3822D5C857</GIVEN>
<TABLE>
0.5 0.5 
0.045454545454545456 0.9545454545454546 
0.9545454545454546 0.045454545454545456 
3.9308176100628933E-4 0.9996069182389937 
</TABLE>
</DEFINITION>
<DEFINITION>
<FOR>XAD2AADD09D0B8941A68D1F24878168CF</FOR>
	<GIVEN>XFAB237C714D4EA4CAA738FB4FC14A168</GIVEN>
	<GIVEN>X0B69F41021D1DA4F9F265746DB9AB25D</GIVEN>
<TABLE>
0.5 0.5 
0.045454545454545456 0.9545454545454546 
0.9583333333333334 0.041666666666666664 
0.0011801730920535012 0.9988198269079465 
</TABLE>
</DEFINITION>
<DEFINITION>
<FOR>XAEC01A791B5CCD48A79635DDB88DF665</FOR>
	<GIVEN>XFAB237C714D4EA4CAA738FB4FC14A168</GIVEN>
	<GIVEN>X30C8251C5B878346B7466D3822D5C857</GIVEN>
<TABLE>
0.5 0.5 
0.045454545454545456 0.9545454545454546 
0.9545454545454546 0.045454545454545456 
3.9308176100628933E-4 0.9996069182389937 
</TABLE>
</DEFINITION>
<DEFINITION>
<FOR>XC6A6ADDA6A698147BFCA5D7376117D61</FOR>
	<GIVEN>XFAB237C714D4EA4CAA738FB4FC14A168</GIVEN>
	<GIVEN>X30C8251C5B878346B7466D3822D5C857</GIVEN>
<TABLE>
0.5 0.5 
0.045454545454545456 0.9545454545454546 
0.9545454545454546 0.045454545454545456 
3.9308176100628933E-4 0.9996069182389937 
</TABLE>
</DEFINITION>
<DEFINITION>
<FOR>XCA6F6B9C48891441B02F0667D29081D3</FOR>
	<GIVEN>XFAB237C714D4EA4CAA738FB4FC14A168</GIVEN>
	<GIVEN>X30C8251C5B878346B7466D3822D5C857</GIVEN>
<TABLE>
0.5 0.5 
0.045454545454545456 0.9545454545454546 
0.9545454545454546 0.045454545454545456 
3.9308176100628933E-4 0.9996069182389937 
</TABLE>
</DEFINITION>
<DEFINITION>
<FOR>XD6176C529857D9468DA99E1E8FE4B226</FOR>
	<GIVEN>XFAB237C714D4EA4CAA738FB4FC14A168</GIVEN>
	<GIVEN>X0B69F41021D1DA4F9F265746DB9AB25D</GIVEN>
<TABLE>
0.5 0.5 
0.045454545454545456 0.9545454545454546 
0.9583333333333334 0.041666666666666664 
3.933910306845004E-4 0.9996066089693155 
</TABLE>
</DEFINITION>
<DEFINITION>
<FOR>XDBEAEF3F83FC4140B27431C9133D801C</FOR>
	<GIVEN>XFAB237C714D4EA4CAA738FB4FC14A168</GIVEN>
	<GIVEN>X0B69F41021D1DA4F9F265746DB9AB25D</GIVEN>
<TABLE>
0.5 0.5 
0.045454545454545456 0.9545454545454546 
0.9583333333333334 0.041666666666666664 
3.933910306845004E-4 0.9996066089693155 
</TABLE>
</DEFINITION>
<DEFINITION>
<FOR>XEB6E4EAF89C97F4CB7CCD9D6207BCD20</FOR>
	<GIVEN>XFAB237C714D4EA4CAA738FB4FC14A168</GIVEN>
	<GIVEN>X30C8251C5B878346B7466D3822D5C857</GIVEN>
<TABLE>
0.5 0.5 
0.045454545454545456 0.9545454545454546 
0.9545454545454546 0.045454545454545456 
3.9308176100628933E-4 0.9996069182389937 
</TABLE>
</DEFINITION>
<DEFINITION>
<FOR>X1205CF3BF6BD0546AE6935131EF7BAFC</FOR>
	<GIVEN>XFAB237C714D4EA4CAA738FB4FC14A168</GIVEN>
	<GIVEN>X3F7A9E98482301DAB7650014220897B8</GIVEN>
<TABLE>
0.9 0.1 
0.07142857142857142 0.9285714285714286 
0.4423076923076923 0.5576923076923077 
0.007557677008750994 0.992442322991249 
</TABLE>
</DEFINITION>
<DEFINITION>
<FOR>X25416429BF9E01DAAF5F0014220897B8</FOR>
	<GIVEN>XFAB237C714D4EA4CAA738FB4FC14A168</GIVEN>
	<GIVEN>X3F7A9E98482301DAB7650014220897B8</GIVEN>
<TABLE>
0.9 0.1 
0.07142857142857142 0.9285714285714286 
0.36538461538461536 0.6346153846153846 
3.977724741447892E-4 0.9996022275258553 
</TABLE>
</DEFINITION>
<DEFINITION>
<FOR>X3F958B3B482301DAA04F0014220897B8</FOR>
	<GIVEN>XFAB237C714D4EA4CAA738FB4FC14A168</GIVEN>
	<GIVEN>X1205CF3BF6BD0546AE6935131EF7BAFC</GIVEN>
<TABLE>
0.9 0.1 
0.07142857142857142 0.9285714285714286 
0.5476190476190477 0.4523809523809524 
0.005942947702060222 0.9940570522979397 
</TABLE>
</DEFINITION>
<DEFINITION>
<FOR>X3F975179482301DA86330014220897B8</FOR>
	<GIVEN>XFAB237C714D4EA4CAA738FB4FC14A168</GIVEN>
	<GIVEN>X25416429BF9E01DAAF5F0014220897B8</GIVEN>
<TABLE>
0.9 0.1 
0.21428571428571427 0.7857142857142857 
0.75 0.25 
0.00589159465828751 0.9941084053417125 
</TABLE>
</DEFINITION>
<DEFINITION>
<FOR>X3F984CF9482301DAB6AE0014220897B8</FOR>
	<GIVEN>XFAB237C714D4EA4CAA738FB4FC14A168</GIVEN>
	<GIVEN>X25416429BF9E01DAAF5F0014220897B8</GIVEN>
<TABLE>
0.9 0.1 
0.07142857142857142 0.9285714285714286 
0.75 0.25 
3.9277297721916735E-4 0.9996072270227808 
</TABLE>
</DEFINITION>
<DEFINITION>
<FOR>X3F98BC92482301DA9BAD0014220897B8</FOR>
	<GIVEN>XFAB237C714D4EA4CAA738FB4FC14A168</GIVEN>
	<GIVEN>X3F975179482301DA86330014220897B8</GIVEN>
<TABLE>
0.9166666666666666 0.08333333333333333 
0.08333333333333333 0.9166666666666666 
0.8333333333333334 0.16666666666666666 
0.0011829652996845426 0.9988170347003155 
</TABLE>
</DEFINITION>
<DEFINITION>
<FOR>X4009457F482301DA899D0014220897B8</FOR>
	<GIVEN>XFAB237C714D4EA4CAA738FB4FC14A168</GIVEN>
	<GIVEN>X3F984CF9482301DAB6AE0014220897B8</GIVEN>
<TABLE>
0.9 0.1 
0.07142857142857142 0.9285714285714286 
0.9375 0.0625 
0.001176470588235294 0.9988235294117647 
</TABLE>
</DEFINITION>
<DEFINITION>
<FOR>X402B3607482301DAAEE40014220897B8</FOR>
	<GIVEN>XFAB237C714D4EA4CAA738FB4FC14A168</GIVEN>
	<GIVEN>X25416429BF9E01DAAF5F0014220897B8</GIVEN>
<TABLE>
0.9 0.1 
0.07142857142857142 0.9285714285714286 
0.95 0.05 
3.9277297721916735E-4 0.9996072270227808 
</TABLE>
</DEFINITION>
<DEFINITION>
<FOR>X402B5094482301DABDA60014220897B8</FOR>
	<GIVEN>XFAB237C714D4EA4CAA738FB4FC14A168</GIVEN>
	<GIVEN>X3F958B3B482301DAA04F0014220897B8</GIVEN>
<TABLE>
0.9 0.1 
0.07142857142857142 0.9285714285714286 
0.6052631578947368 0.39473684210526316 
3.9556962025316455E-4 0.9996044303797469 
</TABLE>
</DEFINITION>
<DEFINITION>
<FOR>X402B6832482301DA8DC20014220897B8</FOR>
	<GIVEN>XFAB237C714D4EA4CAA738FB4FC14A168</GIVEN>
	<GIVEN>X3F984CF9482301DAB6AE0014220897B8</GIVEN>
<TABLE>
0.7 0.3 
0.07142857142857142 0.9285714285714286 
0.9375 0.0625 
0.0058823529411764705 0.9941176470588236 
</TABLE>
</DEFINITION>
<DEFINITION>
<FOR>X402BC3A8482301DAB8D60014220897B8</FOR>
	<GIVEN>XFAB237C714D4EA4CAA738FB4FC14A168</GIVEN>
	<GIVEN>X3F7A9E98482301DAB7650014220897B8</GIVEN>
<TABLE>
0.7 0.3 
0.07142857142857142 0.9285714285714286 
0.4423076923076923 0.5576923076923077 
0.006762132060461416 0.9932378679395386 
</TABLE>
</DEFINITION>
<DEFINITION>
<FOR>X679659C53E1801DB8BD10014220897B8</FOR>
	<GIVEN>XFAB237C714D4EA4CAA738FB4FC14A168</GIVEN>
	<GIVEN>X3F975179482301DA86330014220897B8</GIVEN>
<TABLE>
0.9166666666666666 0.08333333333333333 
0.75 0.25 
0.8333333333333334 0.16666666666666666 
0.008280757097791799 0.9917192429022083 
</TABLE>
</DEFINITION>
<DEFINITION>
<FOR>XD775F3417CD601DAB1640014220897B8</FOR>
	<GIVEN>XFAB237C714D4EA4CAA738FB4FC14A168</GIVEN>
	<GIVEN>X3F958B3B482301DAA04F0014220897B8</GIVEN>
<TABLE>
0.9 0.1 
0.07142857142857142 0.9285714285714286 
0.39473684210526316 0.6052631578947368 
0.003560126582278481 0.9964398734177216 
</TABLE>
</DEFINITION>
<DEFINITION>
<FOR>XE288C631E5463F469A96C1547E9C6DF1</FOR>
	<GIVEN>XFAB237C714D4EA4CAA738FB4FC14A168</GIVEN>
	<GIVEN>X3F975179482301DA86330014220897B8</GIVEN>
<TABLE>
0.9166666666666666 0.08333333333333333 
0.08333333333333333 0.9166666666666666 
0.9666666666666667 0.03333333333333333 
0.005126182965299685 0.9948738170347003 
</TABLE>
</DEFINITION>
<DEFINITION>
<FOR>XF56BF85C8AFC01DA80BA0014220897B8</FOR>
	<GIVEN>XFAB237C714D4EA4CAA738FB4FC14A168</GIVEN>
	<GIVEN>X4009457F482301DA899D0014220897B8</GIVEN>
<TABLE>
0.9 0.1 
0.07142857142857142 0.9285714285714286 
0.9444444444444444 0.05555555555555555 
0.0027472527472527475 0.9972527472527473 
</TABLE>
</DEFINITION>
<DEFINITION>
<FOR>XE530443E9DE801DA98000014220897B8</FOR>
	<GIVEN>XFAB237C714D4EA4CAA738FB4FC14A168</GIVEN>
	<GIVEN>X3FF5EF5A482301DAAC020014220897B8</GIVEN>
<TABLE>
0.5 0.5 
0.045454545454545456 0.9545454545454546 
0.004098360655737705 0.9959016393442623 
0.05297157622739018 0.9470284237726099 
</TABLE>
</DEFINITION>
<DEFINITION>
<FOR>X48BE4C2E33E101DB82330014220897B8</FOR>
	<GIVEN>XFAB237C714D4EA4CAA738FB4FC14A168</GIVEN>
<TABLE>
0.045454545454545456 0.9545454545454546 
0.008970358814352574 0.9910296411856474 
</TABLE>
</DEFINITION>
<DEFINITION>
<FOR>X3F95FF67482301DAA56E0014220897B8</FOR>
	<GIVEN>XFAB237C714D4EA4CAA738FB4FC14A168</GIVEN>
	<GIVEN>X3F838959482301DABF5D0014220897B8</GIVEN>
<TABLE>
0.5 0.5 
0.05555555555555555 0.9444444444444444 
0.17857142857142858 0.8214285714285714 
0.010638297872340425 0.9893617021276596 
</TABLE>
</DEFINITION>
<DEFINITION>
<FOR>X05D90C391C81BA4BAB548EA631C6D951</FOR>
	<GIVEN>XFAB237C714D4EA4CAA738FB4FC14A168</GIVEN>
<TABLE>
0.045454545454545456 0.9545454545454546 
0.009750390015600624 0.9902496099843994 
</TABLE>
</DEFINITION>
<DEFINITION>
<FOR>X3FF1C3A5482301DAB6A00014220897B8</FOR>
	<GIVEN>XFAB237C714D4EA4CAA738FB4FC14A168</GIVEN>
	<GIVEN>X768A5783A36801DA9E2C0014220897B8</GIVEN>
<TABLE>
0.5 0.5 
0.045454545454545456 0.9545454545454546 
0.39285714285714285 0.6071428571428571 
0.007486209613869189 0.9925137903861309 
</TABLE>
</DEFINITION>
<DEFINITION>
<FOR>X387A17E5482301DAAF360014220897B8</FOR>
	<GIVEN>XFAB237C714D4EA4CAA738FB4FC14A168</GIVEN>
	<GIVEN>X3F95FF67482301DAA56E0014220897B8</GIVEN>
<TABLE>
0.75 0.25 
0.05 0.95 
0.03125 0.96875 
0.020126282557221785 0.9798737174427782 
</TABLE>
</DEFINITION>
<DEFINITION>
<FOR>X37C8371F674001DAB6760014220897B8</FOR>
	<GIVEN>XFAB237C714D4EA4CAA738FB4FC14A168</GIVEN>
	<GIVEN>X3F6CF7A8482301DAB86A0014220897B8</GIVEN>
<TABLE>
0.8333333333333334 0.16666666666666666 
0.05555555555555555 0.9444444444444444 
0.71875 0.28125 
0.0027624309392265192 0.9972375690607734 
</TABLE>
</DEFINITION>
<DEFINITION>
<FOR>X3F6CD95A482301DA84D20014220897B8</FOR>
	<GIVEN>XFAB237C714D4EA4CAA738FB4FC14A168</GIVEN>
	<GIVEN>X37C8371F674001DAB6760014220897B8</GIVEN>
<TABLE>
0.8333333333333334 0.16666666666666666 
0.05555555555555555 0.9444444444444444 
0.9 0.1 
3.943217665615142E-4 0.9996056782334385 
</TABLE>
</DEFINITION>
<DEFINITION>
<FOR>X3F6D12A2482301DA993B0014220897B8</FOR>
	<GIVEN>XFAB237C714D4EA4CAA738FB4FC14A168</GIVEN>
	<GIVEN>X3F6CD95A482301DA84D20014220897B8</GIVEN>
<TABLE>
0.5 0.5 
0.05555555555555555 0.9444444444444444 
0.4642857142857143 0.5357142857142857 
0.004334121355397951 0.9956658786446021 
</TABLE>
</DEFINITION>
<DEFINITION>
<FOR>X3FEC6633482301DAB11E0014220897B8</FOR>
	<GIVEN>XFAB237C714D4EA4CAA738FB4FC14A168</GIVEN>
<TABLE>
0.045454545454545456 0.9545454545454546 
0.012870514820592824 0.9871294851794071 
</TABLE>
</DEFINITION>
<DEFINITION>
<FOR>X3FF43BC2482301DAAFF10014220897B8</FOR>
	<GIVEN>XFAB237C714D4EA4CAA738FB4FC14A168</GIVEN>
	<GIVEN>X3E13FE61482301DA82BC0014220897B8</GIVEN>
<TABLE>
0.5 0.5 
0.045454545454545456 0.9545454545454546 
0.004424778761061947 0.995575221238938 
0.07136752136752136 0.9286324786324787 
</TABLE>
</DEFINITION>
<DEFINITION>
<FOR>X3F7A5457482301DA801A0014220897B8</FOR>
	<GIVEN>XFAB237C714D4EA4CAA738FB4FC14A168</GIVEN>
	<GIVEN>X1205CF3BF6BD0546AE6935131EF7BAFC</GIVEN>
<TABLE>
0.7 0.3 
0.07142857142857142 0.9285714285714286 
0.21428571428571427 0.7857142857142857 
0.0035657686212361333 0.9964342313787639 
</TABLE>
</DEFINITION>
<DEFINITION>
<FOR>X3FB8368D482301DA96D10014220897B8</FOR>
	<GIVEN>XFAB237C714D4EA4CAA738FB4FC14A168</GIVEN>
<TABLE>
0.045454545454545456 0.9545454545454546 
0.009750390015600624 0.9902496099843994 
</TABLE>
</DEFINITION>
<DEFINITION>
<FOR>X3886D80F482301DAAB6F0014220897B8</FOR>
	<GIVEN>XFAB237C714D4EA4CAA738FB4FC14A168</GIVEN>
	<GIVEN>X3F6D12A2482301DA993B0014220897B8</GIVEN>
<TABLE>
0.75 0.25 
0.05 0.95 
0.041666666666666664 0.9583333333333334 
0.013768686073957514 0.9862313139260425 
</TABLE>
</DEFINITION>
<DEFINITION>
<FOR>X3886F332482301DAB56A0014220897B8</FOR>
	<GIVEN>XFAB237C714D4EA4CAA738FB4FC14A168</GIVEN>
	<GIVEN>X3886D80F482301DAAB6F0014220897B8</GIVEN>
<TABLE>
0.75 0.25 
0.05 0.95 
0.6944444444444444 0.3055555555555556 
0.009881422924901186 0.9901185770750988 
</TABLE>
</DEFINITION>
<DEFINITION>
<FOR>X388751AA482301DAB41F0014220897B8</FOR>
	<GIVEN>XFAB237C714D4EA4CAA738FB4FC14A168</GIVEN>
	<GIVEN>X3886D80F482301DAAB6F0014220897B8</GIVEN>
<TABLE>
0.75 0.25 
0.05 0.95 
0.75 0.25 
0.001976284584980237 0.9980237154150198 
</TABLE>
</DEFINITION>
<DEFINITION>
<FOR>X38876F58482301DAA5B60014220897B8</FOR>
	<GIVEN>XFAB237C714D4EA4CAA738FB4FC14A168</GIVEN>
	<GIVEN>X3886F332482301DAB56A0014220897B8</GIVEN>
<TABLE>
0.75 0.25 
0.05 0.95 
0.9 0.1 
0.0011923688394276629 0.9988076311605724 
</TABLE>
</DEFINITION>
<DEFINITION>
<FOR>X3887A72E482301DA98E10014220897B8</FOR>
	<GIVEN>XFAB237C714D4EA4CAA738FB4FC14A168</GIVEN>
	<GIVEN>X388751AA482301DAB41F0014220897B8</GIVEN>
<TABLE>
0.75 0.25 
0.05 0.95 
0.78125 0.21875 
0.0027624309392265192 0.9972375690607734 
</TABLE>
</DEFINITION>
<DEFINITION>
<FOR>X3F223312482301DAA67F0014220897B8</FOR>
	<GIVEN>XFAB237C714D4EA4CAA738FB4FC14A168</GIVEN>
	<GIVEN>X38876F58482301DAA5B60014220897B8</GIVEN>
<TABLE>
0.75 0.25 
0.05 0.95 
0.8958333333333334 0.10416666666666667 
0.004368546465448769 0.9956314535345512 
</TABLE>
</DEFINITION>
<DEFINITION>
<FOR>X3F89A32E482301DA81730014220897B8</FOR>
	<GIVEN>XFAB237C714D4EA4CAA738FB4FC14A168</GIVEN>
<TABLE>
0.045454545454545456 0.9545454545454546 
0.012090483619344774 0.9879095163806553 
</TABLE>
</DEFINITION>
<DEFINITION>
<FOR>X3F89BA5E482301DA8ECC0014220897B8</FOR>
	<GIVEN>XFAB237C714D4EA4CAA738FB4FC14A168</GIVEN>
	<GIVEN>X3F89A32E482301DA81730014220897B8</GIVEN>
<TABLE>
0.5 0.5 
0.045454545454545456 0.9545454545454546 
0.96875 0.03125 
3.946329913180742E-4 0.999605367008682 
</TABLE>
</DEFINITION>
<DEFINITION>
<FOR>X3F8A0297482301DA99460014220897B8</FOR>
	<GIVEN>XFAB237C714D4EA4CAA738FB4FC14A168</GIVEN>
	<GIVEN>X3F89A32E482301DA81730014220897B8</GIVEN>
<TABLE>
0.5 0.5 
0.045454545454545456 0.9545454545454546 
0.96875 0.03125 
3.946329913180742E-4 0.999605367008682 
</TABLE>
</DEFINITION>
<DEFINITION>
<FOR>X3FF5DB91482301DAA45A0014220897B8</FOR>
	<GIVEN>XFAB237C714D4EA4CAA738FB4FC14A168</GIVEN>
	<GIVEN>X3E13FE61482301DA82BC0014220897B8</GIVEN>
<TABLE>
0.5 0.5 
0.045454545454545456 0.9545454545454546 
0.004424778761061947 0.995575221238938 
0.03461538461538462 0.9653846153846154 
</TABLE>
</DEFINITION>
<DEFINITION>
<FOR>X35BF954C724B01DA9FD90014220897B8</FOR>
	<GIVEN>XFAB237C714D4EA4CAA738FB4FC14A168</GIVEN>
	<GIVEN>X3F7A5457482301DA801A0014220897B8</GIVEN>
<TABLE>
0.875 0.125 
0.1875 0.8125 
0.2777777777777778 0.7222222222222222 
0.00902668759811617 0.9909733124018838 
</TABLE>
</DEFINITION>
<DEFINITION>
<FOR>XEF7996EFC44E01DA98AD0014220897B8</FOR>
	<GIVEN>XFAB237C714D4EA4CAA738FB4FC14A168</GIVEN>
	<GIVEN>X48BE4C2E33E101DB82330014220897B8</GIVEN>
<TABLE>
0.5 0.5 
0.045454545454545456 0.9545454545454546 
0.20833333333333334 0.7916666666666666 
0.015342250196695516 0.9846577498033044 
</TABLE>
</DEFINITION>
<DEFINITION>
<FOR>X3FA29F80482301DA8E7B0014220897B8</FOR>
	<GIVEN>XFAB237C714D4EA4CAA738FB4FC14A168</GIVEN>
	<GIVEN>X388751AA482301DAB41F0014220897B8</GIVEN>
<TABLE>
0.25 0.75 
0.05 0.95 
0.46875 0.53125 
0.0027624309392265192 0.9972375690607734 
</TABLE>
</DEFINITION>
<DEFINITION>
<FOR>XE2CA1C783FF8AB46A01ECE6F5706784D</FOR>
	<GIVEN>XFAB237C714D4EA4CAA738FB4FC14A168</GIVEN>
	<GIVEN>X3FA29F80482301DA8E7B0014220897B8</GIVEN>
<TABLE>
0.5 0.5 
0.045454545454545456 0.9545454545454546 
0.9545454545454546 0.045454545454545456 
3.9308176100628933E-4 0.9996069182389937 
</TABLE>
</DEFINITION>
<DEFINITION>
<FOR>X385824F0482301DAA0CB0014220897B8</FOR>
	<GIVEN>XFAB237C714D4EA4CAA738FB4FC14A168</GIVEN>
	<GIVEN>X05D90C391C81BA4BAB548EA631C6D951</GIVEN>
<TABLE>
0.5 0.5 
0.045454545454545456 0.9545454545454546 
0.8846153846153846 0.11538461538461539 
3.937007874015748E-4 0.9996062992125985 
</TABLE>
</DEFINITION>
<DEFINITION>
<FOR>X3FBBA642482301DAAA230014220897B8</FOR>
	<GIVEN>XFAB237C714D4EA4CAA738FB4FC14A168</GIVEN>
<TABLE>
0.045454545454545456 0.9545454545454546 
0.011310452418096724 0.9886895475819033 
</TABLE>
</DEFINITION>
<DEFINITION>
<FOR>X3E0D9856482301DAB3410014220897B8</FOR>
	<GIVEN>XFAB237C714D4EA4CAA738FB4FC14A168</GIVEN>
	<GIVEN>X388751AA482301DAB41F0014220897B8</GIVEN>
<TABLE>
0.75 0.25 
0.05 0.95 
0.53125 0.46875 
0.0011838989739542227 0.9988161010260458 
</TABLE>
</DEFINITION>
<DEFINITION>
<FOR>X3E0DB27F482301DA97430014220897B8</FOR>
	<GIVEN>XFAB237C714D4EA4CAA738FB4FC14A168</GIVEN>
	<GIVEN>X3E0D9856482301DAB3410014220897B8</GIVEN>
<TABLE>
0.75 0.25 
0.05 0.95 
0.95 0.05 
3.9277297721916735E-4 0.9996072270227808 
</TABLE>
</DEFINITION>
<DEFINITION>
<FOR>X3FA0F9CA482301DA8AD50014220897B8</FOR>
	<GIVEN>XFAB237C714D4EA4CAA738FB4FC14A168</GIVEN>
	<GIVEN>X3FA29F80482301DA8E7B0014220897B8</GIVEN>
<TABLE>
0.5 0.5 
0.045454545454545456 0.9545454545454546 
0.6818181818181818 0.3181818181818182 
0.003537735849056604 0.9964622641509434 
</TABLE>
</DEFINITION>
<DEFINITION>
<FOR>X3FC0E0DD482301DAA2FC0014220897B8</FOR>
	<GIVEN>XFAB237C714D4EA4CAA738FB4FC14A168</GIVEN>
	<GIVEN>X3EFBBBCD482301DAB4290014220897B8</GIVEN>
<TABLE>
0.5 0.5 
0.045454545454545456 0.9545454545454546 
0.16666666666666666 0.8333333333333334 
0.0036885245901639345 0.9963114754098361 
</TABLE>
</DEFINITION>
<DEFINITION>
<FOR>X3D295927BA17DD45A86DEA5C96A97E36</FOR>
	<GIVEN>XFAB237C714D4EA4CAA738FB4FC14A168</GIVEN>
	<GIVEN>X35BF954C724B01DA9FD90014220897B8</GIVEN>
<TABLE>
0.7 0.3 
0.07142857142857142 0.9285714285714286 
0.4642857142857143 0.5357142857142857 
0.00591016548463357 0.9940898345153665 
</TABLE>
</DEFINITION>
<DEFINITION>
<FOR>X3F95A4E1482301DAB4400014220897B8</FOR>
	<GIVEN>XFAB237C714D4EA4CAA738FB4FC14A168</GIVEN>
	<GIVEN>X35BF954C724B01DA9FD90014220897B8</GIVEN>
<TABLE>
0.9 0.1 
0.07142857142857142 0.9285714285714286 
0.4642857142857143 0.5357142857142857 
0.00512214342001576 0.9948778565799843 
</TABLE>
</DEFINITION>
<DEFINITION>
<FOR>XC502B7F3D28001DA94AC0014220897B8</FOR>
	<GIVEN>XFAB237C714D4EA4CAA738FB4FC14A168</GIVEN>
	<GIVEN>X3D295927BA17DD45A86DEA5C96A97E36</GIVEN>
<TABLE>
0.875 0.125 
0.0625 0.9375 
0.8214285714285714 0.17857142857142858 
0.0035460992907801418 0.9964539007092199 
</TABLE>
</DEFINITION>
<DEFINITION>
<FOR>XC60862D2D28001DAA3C10014220897B8</FOR>
	<GIVEN>XFAB237C714D4EA4CAA738FB4FC14A168</GIVEN>
	<GIVEN>XC502B7F3D28001DA94AC0014220897B8</GIVEN>
<TABLE>
0.875 0.125 
0.0625 0.9375 
0.90625 0.09375 
3.946329913180742E-4 0.999605367008682 
</TABLE>
</DEFINITION>
<DEFINITION>
<FOR>XEF970072511FD94387B52531192D9519</FOR>
	<GIVEN>XFAB237C714D4EA4CAA738FB4FC14A168</GIVEN>
	<GIVEN>X679659C53E1801DB8BD10014220897B8</GIVEN>
<TABLE>
0.65 0.35 
0.25 0.75 
0.717391304347826 0.2826086956521739 
0.0035714285714285713 0.9964285714285714 
</TABLE>
</DEFINITION>
<DEFINITION>
<FOR>X3ED89708482301DA8E920014220897B8</FOR>
	<GIVEN>XFAB237C714D4EA4CAA738FB4FC14A168</GIVEN>
<TABLE>
0.045454545454545456 0.9545454545454546 
0.015990639625585022 0.984009360374415 
</TABLE>
</DEFINITION>
<DEFINITION>
<FOR>X3ED8AF1E482301DA92DB0014220897B8</FOR>
	<GIVEN>XFAB237C714D4EA4CAA738FB4FC14A168</GIVEN>
	<GIVEN>X3ED89708482301DA8E920014220897B8</GIVEN>
<TABLE>
0.5 0.5 
0.045454545454545456 0.9545454545454546 
0.8333333333333334 0.16666666666666666 
3.961965134706815E-4 0.9996038034865293 
</TABLE>
</DEFINITION>
<DEFINITION>
<FOR>XE1626874E48601DA991F0014220897B8</FOR>
	<GIVEN>XFAB237C714D4EA4CAA738FB4FC14A168</GIVEN>
	<GIVEN>X3ED8AF1E482301DA92DB0014220897B8</GIVEN>
<TABLE>
0.5 0.5 
0.13636363636363635 0.8636363636363636 
0.75 0.25 
0.001976284584980237 0.9980237154150198 
</TABLE>
</DEFINITION>
<DEFINITION>
<FOR>X3EFB1E60482301DA86100014220897B8</FOR>
	<GIVEN>XFAB237C714D4EA4CAA738FB4FC14A168</GIVEN>
	<GIVEN>X4024B868482301DA95CC0014220897B8</GIVEN>
<TABLE>
0.5 0.5 
0.045454545454545456 0.9545454545454546 
0.5869565217391305 0.41304347826086957 
3.968253968253968E-4 0.9996031746031746 
</TABLE>
</DEFINITION>
<DEFINITION>
<FOR>X3FB605CB482301DAAF320014220897B8</FOR>
	<GIVEN>XFAB237C714D4EA4CAA738FB4FC14A168</GIVEN>
	<GIVEN>X3EFBBBCD482301DAB4290014220897B8</GIVEN>
<TABLE>
0.5 0.5 
0.045454545454545456 0.9545454545454546 
0.23015873015873015 0.7698412698412699 
0.0012295081967213116 0.9987704918032787 
</TABLE>
</DEFINITION>
<DEFINITION>
<FOR>X37F50270482301DAB4680014220897B8</FOR>
	<GIVEN>XFAB237C714D4EA4CAA738FB4FC14A168</GIVEN>
	<GIVEN>X0B69F41021D1DA4F9F265746DB9AB25D</GIVEN>
<TABLE>
0.5 0.5 
0.045454545454545456 0.9545454545454546 
0.875 0.125 
0.001966955153422502 0.9980330448465775 
</TABLE>
</DEFINITION>
<DEFINITION>
<FOR>X383228FF482301DABF560014220897B8</FOR>
	<GIVEN>XFAB237C714D4EA4CAA738FB4FC14A168</GIVEN>
	<GIVEN>X3832462B482301DAB5800014220897B8</GIVEN>
<TABLE>
0.5 0.5 
0.045454545454545456 0.9545454545454546 
0.875 0.125 
3.933910306845004E-4 0.9996066089693155 
</TABLE>
</DEFINITION>
<DEFINITION>
<FOR>X3FBDA984E9BAC24E89ACC7994A11A3B2</FOR>
	<GIVEN>XFAB237C714D4EA4CAA738FB4FC14A168</GIVEN>
	<GIVEN>X0B69F41021D1DA4F9F265746DB9AB25D</GIVEN>
<TABLE>
0.5 0.5 
0.045454545454545456 0.9545454545454546 
0.875 0.125 
3.933910306845004E-4 0.9996066089693155 
</TABLE>
</DEFINITION>
<DEFINITION>
<FOR>X3FF1B022482301DA9B0F0014220897B8</FOR>
	<GIVEN>XFAB237C714D4EA4CAA738FB4FC14A168</GIVEN>
	<GIVEN>X3FF5DB91482301DAA45A0014220897B8</GIVEN>
<TABLE>
0.5 0.5 
0.045454545454545456 0.9545454545454546 
0.10975609756097561 0.8902439024390244 
0.005233494363929146 0.9947665056360708 
</TABLE>
</DEFINITION>
<DEFINITION>
<FOR>X7644B4C279FC3D46898E9A9F9E1E8EF5</FOR>
	<GIVEN>XFAB237C714D4EA4CAA738FB4FC14A168</GIVEN>
<TABLE>
0.045454545454545456 0.9545454545454546 
0.008190327613104524 0.9918096723868954 
</TABLE>
</DEFINITION>
<DEFINITION>
<FOR>X94458F5F5727314E9460F881148FB3F2</FOR>
	<GIVEN>XFAB237C714D4EA4CAA738FB4FC14A168</GIVEN>
	<GIVEN>X3D295927BA17DD45A86DEA5C96A97E36</GIVEN>
<TABLE>
0.875 0.125 
0.0625 0.9375 
0.4642857142857143 0.5357142857142857 
0.0027580772261623326 0.9972419227738377 
</TABLE>
</DEFINITION>
<DEFINITION>
<FOR>XCB5D685C8C9301DA8A450014220897B8</FOR>
	<GIVEN>XFAB237C714D4EA4CAA738FB4FC14A168</GIVEN>
	<GIVEN>X3F6D12A2482301DA993B0014220897B8</GIVEN>
<TABLE>
0.75 0.25 
0.05 0.95 
0.20833333333333334 0.7916666666666666 
0.005900865460267506 0.9940991345397325 
</TABLE>
</DEFINITION>
<DEFINITION>
<FOR>XCB74ABF78C9301DAA1800014220897B8</FOR>
	<GIVEN>XFAB237C714D4EA4CAA738FB4FC14A168</GIVEN>
	<GIVEN>XCB5D685C8C9301DA8A450014220897B8</GIVEN>
<TABLE>
0.75 0.25 
0.05 0.95 
0.85 0.15 
0.0019638648860958365 0.9980361351139042 
</TABLE>
</DEFINITION>
<DEFINITION>
<FOR>XEDD7D521AC52684ABEAA8F3A45EA8FFF</FOR>
	<GIVEN>XFAB237C714D4EA4CAA738FB4FC14A168</GIVEN>
<TABLE>
0.045454545454545456 0.9545454545454546 
0.013650546021840874 0.9863494539781591 
</TABLE>
</DEFINITION>
<DEFINITION>
<FOR>X7577524DA36801DA95DB0014220897B8</FOR>
	<GIVEN>XFAB237C714D4EA4CAA738FB4FC14A168</GIVEN>
	<GIVEN>X3FF1C3A5482301DAB6A00014220897B8</GIVEN>
<TABLE>
0.5 0.5 
0.045454545454545456 0.9545454545454546 
0.3 0.7 
0.00749211356466877 0.9925078864353313 
</TABLE>
</DEFINITION>
<DEFINITION>
<FOR>X3F7E39AB482301DA9E150014220897B8</FOR>
	<GIVEN>XFAB237C714D4EA4CAA738FB4FC14A168</GIVEN>
	<GIVEN>XC502B7F3D28001DA94AC0014220897B8</GIVEN>
<TABLE>
0.875 0.125 
0.0625 0.9375 
0.53125 0.46875 
3.946329913180742E-4 0.999605367008682 
</TABLE>
</DEFINITION>
<DEFINITION>
<FOR>X3893E7CB482301DAB9050014220897B8</FOR>
	<GIVEN>XFAB237C714D4EA4CAA738FB4FC14A168</GIVEN>
	<GIVEN>XCB5D685C8C9301DA8A450014220897B8</GIVEN>
<TABLE>
0.75 0.25 
0.05 0.95 
0.55 0.45 
0.003534956794972506 0.9964650432050275 
</TABLE>
</DEFINITION>
<DEFINITION>
<FOR>X38940528482301DAAA0B0014220897B8</FOR>
	<GIVEN>XFAB237C714D4EA4CAA738FB4FC14A168</GIVEN>
	<GIVEN>X3893E7CB482301DAB9050014220897B8</GIVEN>
<TABLE>
0.75 0.25 
0.05 0.95 
0.95 0.05 
3.9277297721916735E-4 0.9996072270227808 
</TABLE>
</DEFINITION>
<DEFINITION>
<FOR>X3ECBD056482301DA95FA0014220897B8</FOR>
	<GIVEN>XFAB237C714D4EA4CAA738FB4FC14A168</GIVEN>
	<GIVEN>X3893E7CB482301DAB9050014220897B8</GIVEN>
<TABLE>
0.75 0.25 
0.05 0.95 
0.95 0.05 
3.9277297721916735E-4 0.9996072270227808 
</TABLE>
</DEFINITION>
<DEFINITION>
<FOR>X3F29BA8B482301DA916A0014220897B8</FOR>
	<GIVEN>XFAB237C714D4EA4CAA738FB4FC14A168</GIVEN>
	<GIVEN>X35BF954C724B01DA9FD90014220897B8</GIVEN>
<TABLE>
0.7 0.3 
0.07142857142857142 0.9285714285714286 
0.39285714285714285 0.6071428571428571 
0.0035460992907801418 0.9964539007092199 
</TABLE>
</DEFINITION>
<DEFINITION>
<FOR>X3F62BC3D482301DAA62D0014220897B8</FOR>
	<GIVEN>XFAB237C714D4EA4CAA738FB4FC14A168</GIVEN>
	<GIVEN>XC502B7F3D28001DA94AC0014220897B8</GIVEN>
<TABLE>
0.875 0.125 
0.0625 0.9375 
0.40625 0.59375 
0.003551696921862668 0.9964483030781374 
</TABLE>
</DEFINITION>
<DEFINITION>
<FOR>X402CEEE6482301DAACCC0014220897B8</FOR>
	<GIVEN>XFAB237C714D4EA4CAA738FB4FC14A168</GIVEN>
	<GIVEN>X3F7A5457482301DA801A0014220897B8</GIVEN>
<TABLE>
0.875 0.125 
0.0625 0.9375 
0.6111111111111112 0.3888888888888889 
0.0027472527472527475 0.9972527472527473 
</TABLE>
</DEFINITION>
<DEFINITION>
<FOR>X402D06F2482301DAB30E0014220897B8</FOR>
	<GIVEN>XFAB237C714D4EA4CAA738FB4FC14A168</GIVEN>
	<GIVEN>X3F7A5457482301DA801A0014220897B8</GIVEN>
<TABLE>
0.875 0.125 
0.0625 0.9375 
0.6111111111111112 0.3888888888888889 
0.0019623233908948193 0.9980376766091051 
</TABLE>
</DEFINITION>
<DEFINITION>
<FOR>X3F629B79482301DA8C8F0014220897B8</FOR>
	<GIVEN>XFAB237C714D4EA4CAA738FB4FC14A168</GIVEN>
	<GIVEN>X3F62BC3D482301DAA62D0014220897B8</GIVEN>
<TABLE>
0.875 0.125 
0.0625 0.9375 
0.4090909090909091 0.5909090909090909 
0.003537735849056604 0.9964622641509434 
</TABLE>
</DEFINITION>
<DEFINITION>
<FOR>XA8D746FF953F01DA9E840014220897B8</FOR>
	<GIVEN>XFAB237C714D4EA4CAA738FB4FC14A168</GIVEN>
	<GIVEN>X3893E7CB482301DAB9050014220897B8</GIVEN>
<TABLE>
0.75 0.25 
0.05 0.95 
0.75 0.25 
0.003534956794972506 0.9964650432050275 
</TABLE>
</DEFINITION>
<DEFINITION>
<FOR>XA8FA6230953F01DAB2BB0014220897B8</FOR>
	<GIVEN>XFAB237C714D4EA4CAA738FB4FC14A168</GIVEN>
	<GIVEN>XA8D746FF953F01DA9E840014220897B8</GIVEN>
<TABLE>
0.75 0.25 
0.05 0.95 
0.9583333333333334 0.041666666666666664 
3.933910306845004E-4 0.9996066089693155 
</TABLE>
</DEFINITION>
<DEFINITION>
<FOR>XB430B53F8C9301DAB4260014220897B8</FOR>
	<GIVEN>XFAB237C714D4EA4CAA738FB4FC14A168</GIVEN>
	<GIVEN>XA8D746FF953F01DA9E840014220897B8</GIVEN>
<TABLE>
0.75 0.25 
0.05 0.95 
0.9583333333333334 0.041666666666666664 
0.0011801730920535012 0.9988198269079465 
</TABLE>
</DEFINITION>
<DEFINITION>
<FOR>XB446CA988C9301DAB96D0014220897B8</FOR>
	<GIVEN>XFAB237C714D4EA4CAA738FB4FC14A168</GIVEN>
	<GIVEN>XA8D746FF953F01DA9E840014220897B8</GIVEN>
<TABLE>
0.75 0.25 
0.05 0.95 
0.9583333333333334 0.041666666666666664 
3.933910306845004E-4 0.9996066089693155 
</TABLE>
</DEFINITION>
<DEFINITION>
<FOR>X3F98A3AA482301DA8AE90014220897B8</FOR>
	<GIVEN>XFAB237C714D4EA4CAA738FB4FC14A168</GIVEN>
	<GIVEN>XF56BF85C8AFC01DA80BA0014220897B8</GIVEN>
<TABLE>
0.9 0.1 
0.07142857142857142 0.9285714285714286 
0.625 0.375 
0.0011801730920535012 0.9988198269079465 
</TABLE>
</DEFINITION>
<DEFINITION>
<FOR>X402B1D51482301DAA0F90014220897B8</FOR>
	<GIVEN>XFAB237C714D4EA4CAA738FB4FC14A168</GIVEN>
	<GIVEN>X3F958B3B482301DAA04F0014220897B8</GIVEN>
<TABLE>
0.9 0.1 
0.07142857142857142 0.9285714285714286 
0.5526315789473685 0.4473684210526316 
0.0011867088607594937 0.9988132911392406 
</TABLE>
</DEFINITION>
<DEFINITION>
<FOR>X25D6D9AB33AF0D418B2D40366413116E</FOR>
	<GIVEN>XFAB237C714D4EA4CAA738FB4FC14A168</GIVEN>
<TABLE>
0.9545454545454546 0.045454545454545456 
0.001170046801872075 0.998829953198128 
</TABLE>
</DEFINITION>
<DEFINITION>
<FOR>XFAB237C714D4EA4CAA738FB4FC14A168</FOR>
<TABLE>
0.008126934984520124 0.9918730650154799 
</TABLE>
</DEFINITION>
</NETWORK>
</BIF>
